digraph Tree {
node [shape=box, style="filled", color="black"] ;
0 [label="X[24] <= 0.318\nmse = 0.009\nsamples = 14803\nvalue = 0.082", fillcolor="#fdf5ef"] ;
1 [label="X[24] <= 0.297\nmse = 0.001\nsamples = 4698\nvalue = 0.04", fillcolor="#fefaf7"] ;
0 -> 1 [labeldistance=2.5, labelangle=45, headlabel="True"] ;
2 [label="X[9] <= 0.34\nmse = 0.001\nsamples = 4387\nvalue = 0.039", fillcolor="#fefaf7"] ;
1 -> 2 ;
3 [label="X[0] <= 0.1\nmse = 0.0\nsamples = 1686\nvalue = 0.033", fillcolor="#fefbf8"] ;
2 -> 3 ;
4 [label="X[10] <= 0.745\nmse = 0.0\nsamples = 1556\nvalue = 0.032", fillcolor="#fefbf9"] ;
3 -> 4 ;
5 [label="X[13] <= 0.282\nmse = 0.0\nsamples = 1555\nvalue = 0.032", fillcolor="#fefbf9"] ;
4 -> 5 ;
6 [label="X[15] <= 0.253\nmse = 0.0\nsamples = 671\nvalue = 0.029", fillcolor="#fefbf9"] ;
5 -> 6 ;
7 [label="X[18] <= 0.849\nmse = 0.0\nsamples = 307\nvalue = 0.027", fillcolor="#fefcfa"] ;
6 -> 7 ;
8 [label="X[12] <= 0.85\nmse = 0.0\nsamples = 259\nvalue = 0.026", fillcolor="#fefcfa"] ;
7 -> 8 ;
9 [label="X[21] <= 0.764\nmse = 0.0\nsamples = 17\nvalue = 0.018", fillcolor="#fffdfb"] ;
8 -> 9 ;
10 [label="X[14] <= 0.684\nmse = 0.0\nsamples = 6\nvalue = 0.028", fillcolor="#fefbf9"] ;
9 -> 10 ;
11 [label="X[9] <= 0.133\nmse = 0.0\nsamples = 4\nvalue = 0.033", fillcolor="#fefbf9"] ;
10 -> 11 ;
12 [label="mse = 0.0\nsamples = 2\nvalue = 0.028", fillcolor="#fefbf9"] ;
11 -> 12 ;
13 [label="X[3] <= 0.209\nmse = 0.0\nsamples = 2\nvalue = 0.037", fillcolor="#fefaf8"] ;
11 -> 13 ;
14 [label="mse = 0.0\nsamples = 1\nvalue = 0.037", fillcolor="#fefaf8"] ;
13 -> 14 ;
15 [label="mse = 0.0\nsamples = 1\nvalue = 0.037", fillcolor="#fefaf8"] ;
13 -> 15 ;
16 [label="X[15] <= 0.216\nmse = 0.0\nsamples = 2\nvalue = 0.019", fillcolor="#fffdfb"] ;
10 -> 16 ;
17 [label="mse = 0.0\nsamples = 1\nvalue = 0.019", fillcolor="#fffdfb"] ;
16 -> 17 ;
18 [label="mse = 0.0\nsamples = 1\nvalue = 0.019", fillcolor="#fffdfb"] ;
16 -> 18 ;
19 [label="X[7] <= 0.134\nmse = 0.0\nsamples = 11\nvalue = 0.013", fillcolor="#fffdfc"] ;
9 -> 19 ;
20 [label="mse = 0.0\nsamples = 1\nvalue = 0.028", fillcolor="#fefbf9"] ;
19 -> 20 ;
21 [label="X[2] <= 0.463\nmse = 0.0\nsamples = 10\nvalue = 0.011", fillcolor="#fffefd"] ;
19 -> 21 ;
22 [label="X[24] <= 0.017\nmse = 0.0\nsamples = 3\nvalue = 0.016", fillcolor="#fffdfc"] ;
21 -> 22 ;
23 [label="mse = 0.0\nsamples = 1\nvalue = 0.009", fillcolor="#fffefd"] ;
22 -> 23 ;
24 [label="mse = 0.0\nsamples = 2\nvalue = 0.019", fillcolor="#fffdfb"] ;
22 -> 24 ;
25 [label="mse = 0.0\nsamples = 7\nvalue = 0.009", fillcolor="#fffefd"] ;
21 -> 25 ;
26 [label="X[21] <= 0.742\nmse = 0.0\nsamples = 242\nvalue = 0.026", fillcolor="#fefcfa"] ;
8 -> 26 ;
27 [label="X[15] <= 0.14\nmse = 0.0\nsamples = 6\nvalue = 0.014", fillcolor="#fffdfc"] ;
26 -> 27 ;
28 [label="X[2] <= 0.471\nmse = 0.0\nsamples = 5\nvalue = 0.011", fillcolor="#fffefd"] ;
27 -> 28 ;
29 [label="mse = 0.0\nsamples = 4\nvalue = 0.009", fillcolor="#fffefd"] ;
28 -> 29 ;
30 [label="mse = -0.0\nsamples = 1\nvalue = 0.019", fillcolor="#fffdfb"] ;
28 -> 30 ;
31 [label="mse = 0.0\nsamples = 1\nvalue = 0.028", fillcolor="#fefbf9"] ;
27 -> 31 ;
32 [label="X[4] <= 0.749\nmse = 0.0\nsamples = 236\nvalue = 0.027", fillcolor="#fefcfa"] ;
26 -> 32 ;
33 [label="X[20] <= 0.693\nmse = 0.0\nsamples = 233\nvalue = 0.027", fillcolor="#fefcfa"] ;
32 -> 33 ;
34 [label="X[5] <= 0.214\nmse = 0.0\nsamples = 80\nvalue = 0.029", fillcolor="#fefbf9"] ;
33 -> 34 ;
35 [label="X[7] <= 0.277\nmse = 0.0\nsamples = 12\nvalue = 0.034", fillcolor="#fefbf8"] ;
34 -> 35 ;
36 [label="mse = 0.0\nsamples = 4\nvalue = 0.037", fillcolor="#fefaf8"] ;
35 -> 36 ;
37 [label="X[7] <= 0.281\nmse = 0.0\nsamples = 8\nvalue = 0.033", fillcolor="#fefbf9"] ;
35 -> 37 ;
38 [label="mse = 0.0\nsamples = 2\nvalue = 0.028", fillcolor="#fefbf9"] ;
37 -> 38 ;
39 [label="X[22] <= 0.722\nmse = 0.0\nsamples = 6\nvalue = 0.034", fillcolor="#fefbf8"] ;
37 -> 39 ;
40 [label="mse = 0.0\nsamples = 3\nvalue = 0.037", fillcolor="#fefaf8"] ;
39 -> 40 ;
41 [label="X[9] <= 0.22\nmse = 0.0\nsamples = 3\nvalue = 0.031", fillcolor="#fefbf9"] ;
39 -> 41 ;
42 [label="mse = 0.0\nsamples = 1\nvalue = 0.037", fillcolor="#fefaf8"] ;
41 -> 42 ;
43 [label="mse = 0.0\nsamples = 2\nvalue = 0.028", fillcolor="#fefbf9"] ;
41 -> 43 ;
44 [label="X[19] <= 0.488\nmse = 0.0\nsamples = 68\nvalue = 0.028", fillcolor="#fefbf9"] ;
34 -> 44 ;
45 [label="X[24] <= 0.283\nmse = 0.0\nsamples = 66\nvalue = 0.029", fillcolor="#fefbf9"] ;
44 -> 45 ;
46 [label="X[18] <= 0.752\nmse = 0.0\nsamples = 64\nvalue = 0.029", fillcolor="#fefbf9"] ;
45 -> 46 ;
47 [label="mse = 0.0\nsamples = 1\nvalue = 0.009", fillcolor="#fffefd"] ;
46 -> 47 ;
48 [label="X[6] <= 0.747\nmse = 0.0\nsamples = 63\nvalue = 0.03", fillcolor="#fefbf9"] ;
46 -> 48 ;
49 [label="X[2] <= 0.477\nmse = 0.0\nsamples = 28\nvalue = 0.028", fillcolor="#fefcfa"] ;
48 -> 49 ;
50 [label="X[6] <= 0.691\nmse = 0.0\nsamples = 25\nvalue = 0.029", fillcolor="#fefbf9"] ;
49 -> 50 ;
51 [label="X[6] <= 0.684\nmse = 0.0\nsamples = 13\nvalue = 0.031", fillcolor="#fefbf9"] ;
50 -> 51 ;
52 [label="X[22] <= 0.377\nmse = 0.0\nsamples = 9\nvalue = 0.029", fillcolor="#fefbf9"] ;
51 -> 52 ;
53 [label="mse = 0.0\nsamples = 1\nvalue = 0.037", fillcolor="#fefaf8"] ;
52 -> 53 ;
54 [label="mse = -0.0\nsamples = 8\nvalue = 0.028", fillcolor="#fefbf9"] ;
52 -> 54 ;
55 [label="X[10] <= 0.42\nmse = 0.0\nsamples = 4\nvalue = 0.035", fillcolor="#fefbf8"] ;
51 -> 55 ;
56 [label="mse = 0.0\nsamples = 1\nvalue = 0.028", fillcolor="#fefbf9"] ;
55 -> 56 ;
57 [label="X[17] <= 0.232\nmse = 0.0\nsamples = 3\nvalue = 0.037", fillcolor="#fefaf8"] ;
55 -> 57 ;
58 [label="mse = 0.0\nsamples = 1\nvalue = 0.037", fillcolor="#fefaf8"] ;
57 -> 58 ;
59 [label="mse = -0.0\nsamples = 2\nvalue = 0.037", fillcolor="#fefaf8"] ;
57 -> 59 ;
60 [label="X[12] <= 0.862\nmse = 0.0\nsamples = 12\nvalue = 0.027", fillcolor="#fefcfa"] ;
50 -> 60 ;
61 [label="X[13] <= 0.135\nmse = 0.0\nsamples = 2\nvalue = 0.023", fillcolor="#fefcfa"] ;
60 -> 61 ;
62 [label="mse = 0.0\nsamples = 1\nvalue = 0.019", fillcolor="#fffdfb"] ;
61 -> 62 ;
63 [label="mse = -0.0\nsamples = 1\nvalue = 0.028", fillcolor="#fefbf9"] ;
61 -> 63 ;
64 [label="mse = -0.0\nsamples = 10\nvalue = 0.028", fillcolor="#fefbf9"] ;
60 -> 64 ;
65 [label="X[23] <= 0.62\nmse = 0.0\nsamples = 3\nvalue = 0.016", fillcolor="#fffdfc"] ;
49 -> 65 ;
66 [label="mse = 0.0\nsamples = 2\nvalue = 0.019", fillcolor="#fffdfb"] ;
65 -> 66 ;
67 [label="mse = 0.0\nsamples = 1\nvalue = 0.009", fillcolor="#fffefd"] ;
65 -> 67 ;
68 [label="X[18] <= 0.836\nmse = 0.0\nsamples = 35\nvalue = 0.031", fillcolor="#fefbf9"] ;
48 -> 68 ;
69 [label="X[7] <= 0.337\nmse = 0.0\nsamples = 29\nvalue = 0.033", fillcolor="#fefbf9"] ;
68 -> 69 ;
70 [label="X[17] <= 0.227\nmse = 0.0\nsamples = 28\nvalue = 0.032", fillcolor="#fefbf9"] ;
69 -> 70 ;
71 [label="X[24] <= 0.101\nmse = 0.0\nsamples = 25\nvalue = 0.031", fillcolor="#fefbf9"] ;
70 -> 71 ;
72 [label="X[22] <= 0.395\nmse = 0.0\nsamples = 9\nvalue = 0.029", fillcolor="#fefbf9"] ;
71 -> 72 ;
73 [label="X[17] <= 0.216\nmse = 0.0\nsamples = 2\nvalue = 0.033", fillcolor="#fefbf9"] ;
72 -> 73 ;
74 [label="mse = 0.0\nsamples = 1\nvalue = 0.028", fillcolor="#fefbf9"] ;
73 -> 74 ;
75 [label="mse = 0.0\nsamples = 1\nvalue = 0.037", fillcolor="#fefaf8"] ;
73 -> 75 ;
76 [label="mse = -0.0\nsamples = 7\nvalue = 0.028", fillcolor="#fefbf9"] ;
72 -> 76 ;
77 [label="X[3] <= 0.163\nmse = 0.0\nsamples = 16\nvalue = 0.033", fillcolor="#fefbf9"] ;
71 -> 77 ;
78 [label="X[11] <= 0.431\nmse = 0.0\nsamples = 7\nvalue = 0.029", fillcolor="#fefbf9"] ;
77 -> 78 ;
79 [label="X[24] <= 0.262\nmse = 0.0\nsamples = 6\nvalue = 0.031", fillcolor="#fefbf9"] ;
78 -> 79 ;
80 [label="mse = 0.0\nsamples = 3\nvalue = 0.028", fillcolor="#fefbf9"] ;
79 -> 80 ;
81 [label="X[14] <= 0.701\nmse = 0.0\nsamples = 3\nvalue = 0.034", fillcolor="#fefbf8"] ;
79 -> 81 ;
82 [label="mse = 0.0\nsamples = 2\nvalue = 0.037", fillcolor="#fefaf8"] ;
81 -> 82 ;
83 [label="mse = -0.0\nsamples = 1\nvalue = 0.028", fillcolor="#fefbf9"] ;
81 -> 83 ;
84 [label="mse = 0.0\nsamples = 1\nvalue = 0.019", fillcolor="#fffdfb"] ;
78 -> 84 ;
85 [label="X[20] <= 0.665\nmse = 0.0\nsamples = 9\nvalue = 0.035", fillcolor="#fefbf8"] ;
77 -> 85 ;
86 [label="X[13] <= 0.136\nmse = 0.0\nsamples = 3\nvalue = 0.031", fillcolor="#fefbf9"] ;
85 -> 86 ;
87 [label="mse = 0.0\nsamples = 2\nvalue = 0.028", fillcolor="#fefbf9"] ;
86 -> 87 ;
88 [label="mse = 0.0\nsamples = 1\nvalue = 0.037", fillcolor="#fefaf8"] ;
86 -> 88 ;
89 [label="mse = 0.0\nsamples = 6\nvalue = 0.037", fillcolor="#fefaf8"] ;
85 -> 89 ;
90 [label="mse = -0.0\nsamples = 3\nvalue = 0.037", fillcolor="#fefaf8"] ;
70 -> 90 ;
91 [label="mse = -0.0\nsamples = 1\nvalue = 0.047", fillcolor="#fef9f6"] ;
69 -> 91 ;
92 [label="X[21] <= 0.857\nmse = 0.0\nsamples = 6\nvalue = 0.025", fillcolor="#fefcfa"] ;
68 -> 92 ;
93 [label="mse = 0.0\nsamples = 2\nvalue = 0.019", fillcolor="#fffdfb"] ;
92 -> 93 ;
94 [label="mse = 0.0\nsamples = 4\nvalue = 0.028", fillcolor="#fefbf9"] ;
92 -> 94 ;
95 [label="X[19] <= 0.43\nmse = 0.0\nsamples = 2\nvalue = 0.014", fillcolor="#fffdfc"] ;
45 -> 95 ;
96 [label="mse = 0.0\nsamples = 1\nvalue = 0.009", fillcolor="#fffefd"] ;
95 -> 96 ;
97 [label="mse = 0.0\nsamples = 1\nvalue = 0.019", fillcolor="#fffdfb"] ;
95 -> 97 ;
98 [label="mse = -0.0\nsamples = 2\nvalue = 0.009", fillcolor="#fffefd"] ;
44 -> 98 ;
99 [label="X[6] <= 0.767\nmse = 0.0\nsamples = 153\nvalue = 0.025", fillcolor="#fefcfa"] ;
33 -> 99 ;
100 [label="X[23] <= 0.645\nmse = 0.0\nsamples = 149\nvalue = 0.026", fillcolor="#fefcfa"] ;
99 -> 100 ;
101 [label="X[22] <= 0.216\nmse = 0.0\nsamples = 143\nvalue = 0.025", fillcolor="#fefcfa"] ;
100 -> 101 ;
102 [label="X[24] <= 0.262\nmse = 0.0\nsamples = 22\nvalue = 0.03", fillcolor="#fefbf9"] ;
101 -> 102 ;
103 [label="X[22] <= 0.167\nmse = 0.0\nsamples = 14\nvalue = 0.035", fillcolor="#fefbf8"] ;
102 -> 103 ;
104 [label="X[3] <= 0.124\nmse = 0.0\nsamples = 6\nvalue = 0.031", fillcolor="#fefbf9"] ;
103 -> 104 ;
105 [label="X[16] <= 0.579\nmse = 0.0\nsamples = 3\nvalue = 0.034", fillcolor="#fefbf8"] ;
104 -> 105 ;
106 [label="mse = 0.0\nsamples = 1\nvalue = 0.028", fillcolor="#fefbf9"] ;
105 -> 106 ;
107 [label="X[16] <= 0.58\nmse = 0.0\nsamples = 2\nvalue = 0.037", fillcolor="#fefaf8"] ;
105 -> 107 ;
108 [label="mse = 0.0\nsamples = 1\nvalue = 0.037", fillcolor="#fefaf8"] ;
107 -> 108 ;
109 [label="mse = 0.0\nsamples = 1\nvalue = 0.037", fillcolor="#fefaf8"] ;
107 -> 109 ;
110 [label="mse = -0.0\nsamples = 3\nvalue = 0.028", fillcolor="#fefbf9"] ;
104 -> 110 ;
111 [label="X[6] <= 0.629\nmse = 0.0\nsamples = 8\nvalue = 0.037", fillcolor="#fefaf8"] ;
103 -> 111 ;
112 [label="mse = 0.0\nsamples = 1\nvalue = 0.037", fillcolor="#fefaf8"] ;
111 -> 112 ;
113 [label="mse = 0.0\nsamples = 7\nvalue = 0.037", fillcolor="#fefaf8"] ;
111 -> 113 ;
114 [label="X[19] <= 0.362\nmse = 0.0\nsamples = 8\nvalue = 0.022", fillcolor="#fefcfb"] ;
102 -> 114 ;
115 [label="X[21] <= 0.795\nmse = 0.0\nsamples = 6\nvalue = 0.026", fillcolor="#fefcfa"] ;
114 -> 115 ;
116 [label="X[11] <= 0.116\nmse = 0.0\nsamples = 2\nvalue = 0.014", fillcolor="#fffdfc"] ;
115 -> 116 ;
117 [label="mse = 0.0\nsamples = 1\nvalue = 0.009", fillcolor="#fffefd"] ;
116 -> 117 ;
118 [label="mse = 0.0\nsamples = 1\nvalue = 0.019", fillcolor="#fffdfb"] ;
116 -> 118 ;
119 [label="X[5] <= 0.134\nmse = 0.0\nsamples = 4\nvalue = 0.033", fillcolor="#fefbf9"] ;
115 -> 119 ;
120 [label="mse = 0.0\nsamples = 1\nvalue = 0.037", fillcolor="#fefaf8"] ;
119 -> 120 ;
121 [label="X[15] <= 0.1\nmse = 0.0\nsamples = 3\nvalue = 0.031", fillcolor="#fefbf9"] ;
119 -> 121 ;
122 [label="mse = 0.0\nsamples = 1\nvalue = 0.037", fillcolor="#fefaf8"] ;
121 -> 122 ;
123 [label="mse = 0.0\nsamples = 2\nvalue = 0.028", fillcolor="#fefbf9"] ;
121 -> 123 ;
124 [label="mse = -0.0\nsamples = 2\nvalue = 0.009", fillcolor="#fffefd"] ;
114 -> 124 ;
125 [label="X[17] <= 0.221\nmse = 0.0\nsamples = 121\nvalue = 0.025", fillcolor="#fefcfa"] ;
101 -> 125 ;
126 [label="X[21] <= 0.753\nmse = 0.0\nsamples = 112\nvalue = 0.025", fillcolor="#fefcfa"] ;
125 -> 126 ;
127 [label="X[12] <= 0.986\nmse = 0.0\nsamples = 5\nvalue = 0.017", fillcolor="#fffdfc"] ;
126 -> 127 ;
128 [label="X[5] <= 0.178\nmse = 0.0\nsamples = 3\nvalue = 0.022", fillcolor="#fefcfb"] ;
127 -> 128 ;
129 [label="mse = -0.0\nsamples = 2\nvalue = 0.019", fillcolor="#fffdfb"] ;
128 -> 129 ;
130 [label="mse = 0.0\nsamples = 1\nvalue = 0.028", fillcolor="#fefbf9"] ;
128 -> 130 ;
131 [label="X[19] <= 0.298\nmse = 0.0\nsamples = 2\nvalue = 0.009", fillcolor="#fffefd"] ;
127 -> 131 ;
132 [label="mse = 0.0\nsamples = 1\nvalue = 0.009", fillcolor="#fffefd"] ;
131 -> 132 ;
133 [label="mse = 0.0\nsamples = 1\nvalue = 0.009", fillcolor="#fffefd"] ;
131 -> 133 ;
134 [label="X[9] <= 0.139\nmse = 0.0\nsamples = 107\nvalue = 0.026", fillcolor="#fefcfa"] ;
126 -> 134 ;
135 [label="X[9] <= 0.135\nmse = 0.0\nsamples = 66\nvalue = 0.024", fillcolor="#fefcfa"] ;
134 -> 135 ;
136 [label="X[16] <= 0.815\nmse = 0.0\nsamples = 64\nvalue = 0.025", fillcolor="#fefcfa"] ;
135 -> 136 ;
137 [label="X[2] <= 0.421\nmse = 0.0\nsamples = 60\nvalue = 0.025", fillcolor="#fefcfa"] ;
136 -> 137 ;
138 [label="X[11] <= 0.322\nmse = 0.0\nsamples = 24\nvalue = 0.022", fillcolor="#fefcfb"] ;
137 -> 138 ;
139 [label="X[24] <= 0.01\nmse = 0.0\nsamples = 7\nvalue = 0.029", fillcolor="#fefbf9"] ;
138 -> 139 ;
140 [label="X[9] <= 0.038\nmse = 0.0\nsamples = 2\nvalue = 0.033", fillcolor="#fefbf9"] ;
139 -> 140 ;
141 [label="mse = 0.0\nsamples = 1\nvalue = 0.037", fillcolor="#fefaf8"] ;
140 -> 141 ;
142 [label="mse = 0.0\nsamples = 1\nvalue = 0.028", fillcolor="#fefbf9"] ;
140 -> 142 ;
143 [label="X[23] <= 0.155\nmse = 0.0\nsamples = 5\nvalue = 0.028", fillcolor="#fefbf9"] ;
139 -> 143 ;
144 [label="mse = 0.0\nsamples = 1\nvalue = 0.028", fillcolor="#fefbf9"] ;
143 -> 144 ;
145 [label="X[5] <= 0.108\nmse = 0.0\nsamples = 4\nvalue = 0.028", fillcolor="#fefbf9"] ;
143 -> 145 ;
146 [label="mse = 0.0\nsamples = 2\nvalue = 0.028", fillcolor="#fefbf9"] ;
145 -> 146 ;
147 [label="mse = 0.0\nsamples = 2\nvalue = 0.028", fillcolor="#fefbf9"] ;
145 -> 147 ;
148 [label="X[14] <= 0.478\nmse = 0.0\nsamples = 17\nvalue = 0.019", fillcolor="#fefdfb"] ;
138 -> 148 ;
149 [label="mse = 0.0\nsamples = 3\nvalue = 0.009", fillcolor="#fffefd"] ;
148 -> 149 ;
150 [label="X[24] <= 0.094\nmse = 0.0\nsamples = 14\nvalue = 0.021", fillcolor="#fefcfb"] ;
148 -> 150 ;
151 [label="X[18] <= 0.495\nmse = 0.0\nsamples = 6\nvalue = 0.028", fillcolor="#fefbf9"] ;
150 -> 151 ;
152 [label="mse = 0.0\nsamples = 1\nvalue = 0.019", fillcolor="#fffdfb"] ;
151 -> 152 ;
153 [label="X[9] <= 0.006\nmse = 0.0\nsamples = 5\nvalue = 0.03", fillcolor="#fefbf9"] ;
151 -> 153 ;
154 [label="mse = 0.0\nsamples = 1\nvalue = 0.019", fillcolor="#fffdfb"] ;
153 -> 154 ;
155 [label="X[4] <= 0.609\nmse = 0.0\nsamples = 4\nvalue = 0.033", fillcolor="#fefbf9"] ;
153 -> 155 ;
156 [label="mse = 0.0\nsamples = 2\nvalue = 0.037", fillcolor="#fefaf8"] ;
155 -> 156 ;
157 [label="X[9] <= 0.033\nmse = 0.0\nsamples = 2\nvalue = 0.028", fillcolor="#fefbf9"] ;
155 -> 157 ;
158 [label="mse = 0.0\nsamples = 1\nvalue = 0.028", fillcolor="#fefbf9"] ;
157 -> 158 ;
159 [label="mse = 0.0\nsamples = 1\nvalue = 0.028", fillcolor="#fefbf9"] ;
157 -> 159 ;
160 [label="X[9] <= 0.028\nmse = 0.0\nsamples = 8\nvalue = 0.016", fillcolor="#fffdfc"] ;
150 -> 160 ;
161 [label="X[3] <= 0.122\nmse = 0.0\nsamples = 4\nvalue = 0.012", fillcolor="#fffefd"] ;
160 -> 161 ;
162 [label="mse = -0.0\nsamples = 3\nvalue = 0.009", fillcolor="#fffefd"] ;
161 -> 162 ;
163 [label="mse = 0.0\nsamples = 1\nvalue = 0.019", fillcolor="#fffdfb"] ;
161 -> 163 ;
164 [label="X[14] <= 0.492\nmse = 0.0\nsamples = 4\nvalue = 0.021", fillcolor="#fefcfb"] ;
160 -> 164 ;
165 [label="mse = 0.0\nsamples = 1\nvalue = 0.028", fillcolor="#fefbf9"] ;
164 -> 165 ;
166 [label="mse = 0.0\nsamples = 3\nvalue = 0.019", fillcolor="#fffdfb"] ;
164 -> 166 ;
167 [label="X[5] <= 0.1\nmse = 0.0\nsamples = 36\nvalue = 0.027", fillcolor="#fefcfa"] ;
137 -> 167 ;
168 [label="X[4] <= 0.637\nmse = 0.0\nsamples = 28\nvalue = 0.029", fillcolor="#fefbf9"] ;
167 -> 168 ;
169 [label="X[11] <= 0.34\nmse = 0.0\nsamples = 24\nvalue = 0.031", fillcolor="#fefbf9"] ;
168 -> 169 ;
170 [label="X[13] <= 0.037\nmse = 0.0\nsamples = 2\nvalue = 0.019", fillcolor="#fffdfb"] ;
169 -> 170 ;
171 [label="mse = 0.0\nsamples = 1\nvalue = 0.009", fillcolor="#fffefd"] ;
170 -> 171 ;
172 [label="mse = 0.0\nsamples = 1\nvalue = 0.028", fillcolor="#fefbf9"] ;
170 -> 172 ;
173 [label="X[23] <= 0.557\nmse = 0.0\nsamples = 22\nvalue = 0.032", fillcolor="#fefbf9"] ;
169 -> 173 ;
174 [label="X[24] <= 0.157\nmse = 0.0\nsamples = 20\nvalue = 0.031", fillcolor="#fefbf9"] ;
173 -> 174 ;
175 [label="X[20] <= 0.91\nmse = 0.0\nsamples = 7\nvalue = 0.033", fillcolor="#fefbf8"] ;
174 -> 175 ;
176 [label="mse = 0.0\nsamples = 3\nvalue = 0.037", fillcolor="#fefaf8"] ;
175 -> 176 ;
177 [label="X[5] <= 0.092\nmse = 0.0\nsamples = 4\nvalue = 0.03", fillcolor="#fefbf9"] ;
175 -> 177 ;
178 [label="X[6] <= 0.691\nmse = 0.0\nsamples = 2\nvalue = 0.033", fillcolor="#fefbf9"] ;
177 -> 178 ;
179 [label="mse = 0.0\nsamples = 1\nvalue = 0.028", fillcolor="#fefbf9"] ;
178 -> 179 ;
180 [label="mse = 0.0\nsamples = 1\nvalue = 0.037", fillcolor="#fefaf8"] ;
178 -> 180 ;
181 [label="mse = -0.0\nsamples = 2\nvalue = 0.028", fillcolor="#fefbf9"] ;
177 -> 181 ;
182 [label="X[9] <= 0.025\nmse = 0.0\nsamples = 13\nvalue = 0.03", fillcolor="#fefbf9"] ;
174 -> 182 ;
183 [label="X[5] <= 0.096\nmse = 0.0\nsamples = 8\nvalue = 0.032", fillcolor="#fefbf9"] ;
182 -> 183 ;
184 [label="mse = 0.0\nsamples = 2\nvalue = 0.037", fillcolor="#fefaf8"] ;
183 -> 184 ;
185 [label="X[2] <= 0.439\nmse = 0.0\nsamples = 6\nvalue = 0.03", fillcolor="#fefbf9"] ;
183 -> 185 ;
186 [label="mse = 0.0\nsamples = 4\nvalue = 0.028", fillcolor="#fefbf9"] ;
185 -> 186 ;
187 [label="X[20] <= 0.893\nmse = 0.0\nsamples = 2\nvalue = 0.033", fillcolor="#fefbf9"] ;
185 -> 187 ;
188 [label="mse = 0.0\nsamples = 1\nvalue = 0.028", fillcolor="#fefbf9"] ;
187 -> 188 ;
189 [label="mse = 0.0\nsamples = 1\nvalue = 0.037", fillcolor="#fefaf8"] ;
187 -> 189 ;
190 [label="mse = -0.0\nsamples = 5\nvalue = 0.028", fillcolor="#fefbf9"] ;
182 -> 190 ;
191 [label="X[6] <= 0.579\nmse = 0.0\nsamples = 2\nvalue = 0.037", fillcolor="#fefaf8"] ;
173 -> 191 ;
192 [label="mse = 0.0\nsamples = 1\nvalue = 0.037", fillcolor="#fefaf8"] ;
191 -> 192 ;
193 [label="mse = 0.0\nsamples = 1\nvalue = 0.037", fillcolor="#fefaf8"] ;
191 -> 193 ;
194 [label="X[15] <= 0.03\nmse = 0.0\nsamples = 4\nvalue = 0.019", fillcolor="#fffdfb"] ;
168 -> 194 ;
195 [label="mse = 0.0\nsamples = 2\nvalue = 0.028", fillcolor="#fefbf9"] ;
194 -> 195 ;
196 [label="X[16] <= 0.562\nmse = 0.0\nsamples = 2\nvalue = 0.009", fillcolor="#fffefd"] ;
194 -> 196 ;
197 [label="mse = 0.0\nsamples = 1\nvalue = 0.009", fillcolor="#fffefd"] ;
196 -> 197 ;
198 [label="mse = 0.0\nsamples = 1\nvalue = 0.009", fillcolor="#fffefd"] ;
196 -> 198 ;
199 [label="X[11] <= 0.364\nmse = 0.0\nsamples = 8\nvalue = 0.021", fillcolor="#fefcfb"] ;
167 -> 199 ;
200 [label="X[16] <= 0.809\nmse = 0.0\nsamples = 4\nvalue = 0.014", fillcolor="#fffdfc"] ;
199 -> 200 ;
201 [label="mse = 0.0\nsamples = 1\nvalue = 0.009", fillcolor="#fffefd"] ;
200 -> 201 ;
202 [label="X[16] <= 0.812\nmse = 0.0\nsamples = 3\nvalue = 0.016", fillcolor="#fffdfc"] ;
200 -> 202 ;
203 [label="mse = 0.0\nsamples = 2\nvalue = 0.019", fillcolor="#fffdfb"] ;
202 -> 203 ;
204 [label="mse = 0.0\nsamples = 1\nvalue = 0.009", fillcolor="#fffefd"] ;
202 -> 204 ;
205 [label="mse = -0.0\nsamples = 4\nvalue = 0.028", fillcolor="#fefbf9"] ;
199 -> 205 ;
206 [label="X[14] <= 0.595\nmse = 0.0\nsamples = 4\nvalue = 0.016", fillcolor="#fffdfc"] ;
136 -> 206 ;
207 [label="mse = 0.0\nsamples = 3\nvalue = 0.019", fillcolor="#fffdfb"] ;
206 -> 207 ;
208 [label="mse = 0.0\nsamples = 1\nvalue = 0.009", fillcolor="#fffefd"] ;
206 -> 208 ;
209 [label="mse = -0.0\nsamples = 2\nvalue = 0.009", fillcolor="#fffefd"] ;
135 -> 209 ;
210 [label="X[10] <= 0.241\nmse = 0.0\nsamples = 41\nvalue = 0.028", fillcolor="#fefbf9"] ;
134 -> 210 ;
211 [label="X[14] <= 0.334\nmse = 0.0\nsamples = 3\nvalue = 0.016", fillcolor="#fffdfc"] ;
210 -> 211 ;
212 [label="mse = 0.0\nsamples = 1\nvalue = 0.009", fillcolor="#fffefd"] ;
211 -> 212 ;
213 [label="mse = 0.0\nsamples = 2\nvalue = 0.019", fillcolor="#fffdfb"] ;
211 -> 213 ;
214 [label="X[24] <= 0.052\nmse = 0.0\nsamples = 38\nvalue = 0.029", fillcolor="#fefbf9"] ;
210 -> 214 ;
215 [label="X[20] <= 0.834\nmse = 0.0\nsamples = 6\nvalue = 0.02", fillcolor="#fefcfb"] ;
214 -> 215 ;
216 [label="X[3] <= 0.224\nmse = 0.0\nsamples = 4\nvalue = 0.014", fillcolor="#fffdfc"] ;
215 -> 216 ;
217 [label="mse = 0.0\nsamples = 2\nvalue = 0.009", fillcolor="#fffefd"] ;
216 -> 217 ;
218 [label="mse = -0.0\nsamples = 2\nvalue = 0.019", fillcolor="#fffdfb"] ;
216 -> 218 ;
219 [label="X[13] <= 0.219\nmse = 0.0\nsamples = 2\nvalue = 0.033", fillcolor="#fefbf9"] ;
215 -> 219 ;
220 [label="mse = 0.0\nsamples = 1\nvalue = 0.028", fillcolor="#fefbf9"] ;
219 -> 220 ;
221 [label="mse = 0.0\nsamples = 1\nvalue = 0.037", fillcolor="#fefaf8"] ;
219 -> 221 ;
222 [label="X[5] <= 0.287\nmse = 0.0\nsamples = 32\nvalue = 0.031", fillcolor="#fefbf9"] ;
214 -> 222 ;
223 [label="X[22] <= 0.481\nmse = 0.0\nsamples = 31\nvalue = 0.031", fillcolor="#fefbf9"] ;
222 -> 223 ;
224 [label="X[11] <= 0.397\nmse = 0.0\nsamples = 25\nvalue = 0.032", fillcolor="#fefbf9"] ;
223 -> 224 ;
225 [label="X[16] <= 0.589\nmse = 0.0\nsamples = 22\nvalue = 0.031", fillcolor="#fefbf9"] ;
224 -> 225 ;
226 [label="X[20] <= 0.813\nmse = 0.0\nsamples = 16\nvalue = 0.033", fillcolor="#fefbf9"] ;
225 -> 226 ;
227 [label="mse = 0.0\nsamples = 3\nvalue = 0.037", fillcolor="#fefaf8"] ;
226 -> 227 ;
228 [label="X[9] <= 0.147\nmse = 0.0\nsamples = 13\nvalue = 0.032", fillcolor="#fefbf9"] ;
226 -> 228 ;
229 [label="mse = 0.0\nsamples = 3\nvalue = 0.028", fillcolor="#fefbf9"] ;
228 -> 229 ;
230 [label="X[19] <= 0.269\nmse = 0.0\nsamples = 10\nvalue = 0.033", fillcolor="#fefbf9"] ;
228 -> 230 ;
231 [label="X[11] <= 0.212\nmse = 0.0\nsamples = 7\nvalue = 0.031", fillcolor="#fefbf9"] ;
230 -> 231 ;
232 [label="X[15] <= 0.183\nmse = 0.0\nsamples = 4\nvalue = 0.033", fillcolor="#fefbf9"] ;
231 -> 232 ;
233 [label="mse = 0.0\nsamples = 1\nvalue = 0.037", fillcolor="#fefaf8"] ;
232 -> 233 ;
234 [label="X[16] <= 0.561\nmse = 0.0\nsamples = 3\nvalue = 0.031", fillcolor="#fefbf9"] ;
232 -> 234 ;
235 [label="mse = 0.0\nsamples = 1\nvalue = 0.028", fillcolor="#fefbf9"] ;
234 -> 235 ;
236 [label="X[4] <= 0.467\nmse = 0.0\nsamples = 2\nvalue = 0.033", fillcolor="#fefbf9"] ;
234 -> 236 ;
237 [label="mse = 0.0\nsamples = 1\nvalue = 0.037", fillcolor="#fefaf8"] ;
236 -> 237 ;
238 [label="mse = 0.0\nsamples = 1\nvalue = 0.028", fillcolor="#fefbf9"] ;
236 -> 238 ;
239 [label="mse = -0.0\nsamples = 3\nvalue = 0.028", fillcolor="#fefbf9"] ;
231 -> 239 ;
240 [label="X[12] <= 0.982\nmse = 0.0\nsamples = 3\nvalue = 0.037", fillcolor="#fefaf8"] ;
230 -> 240 ;
241 [label="mse = 0.0\nsamples = 1\nvalue = 0.037", fillcolor="#fefaf8"] ;
240 -> 241 ;
242 [label="mse = -0.0\nsamples = 2\nvalue = 0.037", fillcolor="#fefaf8"] ;
240 -> 242 ;
243 [label="X[15] <= 0.109\nmse = 0.0\nsamples = 6\nvalue = 0.028", fillcolor="#fefbf9"] ;
225 -> 243 ;
244 [label="mse = 0.0\nsamples = 2\nvalue = 0.028", fillcolor="#fefbf9"] ;
243 -> 244 ;
245 [label="X[25] <= 0.583\nmse = 0.0\nsamples = 4\nvalue = 0.028", fillcolor="#fefbf9"] ;
243 -> 245 ;
246 [label="mse = 0.0\nsamples = 2\nvalue = 0.028", fillcolor="#fefbf9"] ;
245 -> 246 ;
247 [label="mse = 0.0\nsamples = 2\nvalue = 0.028", fillcolor="#fefbf9"] ;
245 -> 247 ;
248 [label="X[5] <= 0.241\nmse = 0.0\nsamples = 3\nvalue = 0.037", fillcolor="#fefaf8"] ;
224 -> 248 ;
249 [label="mse = 0.0\nsamples = 1\nvalue = 0.037", fillcolor="#fefaf8"] ;
248 -> 249 ;
250 [label="mse = -0.0\nsamples = 2\nvalue = 0.037", fillcolor="#fefaf8"] ;
248 -> 250 ;
251 [label="X[12] <= 0.967\nmse = 0.0\nsamples = 6\nvalue = 0.026", fillcolor="#fefcfa"] ;
223 -> 251 ;
252 [label="X[3] <= 0.084\nmse = 0.0\nsamples = 5\nvalue = 0.03", fillcolor="#fefbf9"] ;
251 -> 252 ;
253 [label="mse = 0.0\nsamples = 1\nvalue = 0.037", fillcolor="#fefaf8"] ;
252 -> 253 ;
254 [label="mse = -0.0\nsamples = 4\nvalue = 0.028", fillcolor="#fefbf9"] ;
252 -> 254 ;
255 [label="mse = -0.0\nsamples = 1\nvalue = 0.009", fillcolor="#fffefd"] ;
251 -> 255 ;
256 [label="mse = -0.0\nsamples = 1\nvalue = 0.019", fillcolor="#fffdfb"] ;
222 -> 256 ;
257 [label="X[4] <= 0.655\nmse = 0.0\nsamples = 9\nvalue = 0.016", fillcolor="#fffdfc"] ;
125 -> 257 ;
258 [label="X[2] <= 0.484\nmse = 0.0\nsamples = 7\nvalue = 0.011", fillcolor="#fffefd"] ;
257 -> 258 ;
259 [label="mse = 0.0\nsamples = 6\nvalue = 0.009", fillcolor="#fffefd"] ;
258 -> 259 ;
260 [label="mse = -0.0\nsamples = 1\nvalue = 0.019", fillcolor="#fffdfb"] ;
258 -> 260 ;
261 [label="X[9] <= 0.232\nmse = 0.0\nsamples = 2\nvalue = 0.033", fillcolor="#fefbf9"] ;
257 -> 261 ;
262 [label="mse = 0.0\nsamples = 1\nvalue = 0.028", fillcolor="#fefbf9"] ;
261 -> 262 ;
263 [label="mse = 0.0\nsamples = 1\nvalue = 0.037", fillcolor="#fefaf8"] ;
261 -> 263 ;
264 [label="X[17] <= 0.225\nmse = 0.0\nsamples = 6\nvalue = 0.037", fillcolor="#fefaf8"] ;
100 -> 264 ;
265 [label="mse = 0.0\nsamples = 4\nvalue = 0.037", fillcolor="#fefaf8"] ;
264 -> 265 ;
266 [label="mse = -0.0\nsamples = 2\nvalue = 0.037", fillcolor="#fefaf8"] ;
264 -> 266 ;
267 [label="X[22] <= 0.315\nmse = 0.0\nsamples = 4\nvalue = 0.009", fillcolor="#fffefd"] ;
99 -> 267 ;
268 [label="X[8] <= 0.872\nmse = 0.0\nsamples = 3\nvalue = 0.006", fillcolor="#fffefe"] ;
267 -> 268 ;
269 [label="mse = 0.0\nsamples = 2\nvalue = 0.009", fillcolor="#fffefd"] ;
268 -> 269 ;
270 [label="mse = 0.0\nsamples = 1\nvalue = 0.0", fillcolor="#ffffff"] ;
268 -> 270 ;
271 [label="mse = -0.0\nsamples = 1\nvalue = 0.019", fillcolor="#fffdfb"] ;
267 -> 271 ;
272 [label="X[19] <= 0.481\nmse = 0.0\nsamples = 3\nvalue = 0.012", fillcolor="#fffdfd"] ;
32 -> 272 ;
273 [label="mse = 0.0\nsamples = 1\nvalue = 0.019", fillcolor="#fffdfb"] ;
272 -> 273 ;
274 [label="mse = -0.0\nsamples = 2\nvalue = 0.009", fillcolor="#fffefd"] ;
272 -> 274 ;
275 [label="X[10] <= 0.334\nmse = 0.0\nsamples = 48\nvalue = 0.033", fillcolor="#fefbf9"] ;
7 -> 275 ;
276 [label="X[8] <= 0.826\nmse = 0.0\nsamples = 4\nvalue = 0.019", fillcolor="#fffdfb"] ;
275 -> 276 ;
277 [label="X[14] <= 0.806\nmse = 0.0\nsamples = 3\nvalue = 0.022", fillcolor="#fefcfb"] ;
276 -> 277 ;
278 [label="mse = -0.0\nsamples = 2\nvalue = 0.019", fillcolor="#fffdfb"] ;
277 -> 278 ;
279 [label="mse = 0.0\nsamples = 1\nvalue = 0.028", fillcolor="#fefbf9"] ;
277 -> 279 ;
280 [label="mse = 0.0\nsamples = 1\nvalue = 0.009", fillcolor="#fffefd"] ;
276 -> 280 ;
281 [label="X[6] <= 0.745\nmse = 0.0\nsamples = 44\nvalue = 0.034", fillcolor="#fefbf8"] ;
275 -> 281 ;
282 [label="X[17] <= 0.154\nmse = 0.0\nsamples = 12\nvalue = 0.038", fillcolor="#fefaf7"] ;
281 -> 282 ;
283 [label="X[11] <= 0.422\nmse = 0.0\nsamples = 8\nvalue = 0.036", fillcolor="#fefaf8"] ;
282 -> 283 ;
284 [label="mse = 0.0\nsamples = 6\nvalue = 0.037", fillcolor="#fefaf8"] ;
283 -> 284 ;
285 [label="X[24] <= 0.017\nmse = 0.0\nsamples = 2\nvalue = 0.033", fillcolor="#fefbf9"] ;
283 -> 285 ;
286 [label="mse = 0.0\nsamples = 1\nvalue = 0.037", fillcolor="#fefaf8"] ;
285 -> 286 ;
287 [label="mse = 0.0\nsamples = 1\nvalue = 0.028", fillcolor="#fefbf9"] ;
285 -> 287 ;
288 [label="X[18] <= 0.89\nmse = 0.0\nsamples = 4\nvalue = 0.042", fillcolor="#fefaf7"] ;
282 -> 288 ;
289 [label="X[17] <= 0.167\nmse = 0.0\nsamples = 3\nvalue = 0.044", fillcolor="#fefaf6"] ;
288 -> 289 ;
290 [label="X[20] <= 0.867\nmse = 0.0\nsamples = 2\nvalue = 0.042", fillcolor="#fefaf7"] ;
289 -> 290 ;
291 [label="mse = 0.0\nsamples = 1\nvalue = 0.037", fillcolor="#fefaf8"] ;
290 -> 291 ;
292 [label="mse = -0.0\nsamples = 1\nvalue = 0.047", fillcolor="#fef9f6"] ;
290 -> 292 ;
293 [label="mse = -0.0\nsamples = 1\nvalue = 0.047", fillcolor="#fef9f6"] ;
289 -> 293 ;
294 [label="mse = 0.0\nsamples = 1\nvalue = 0.037", fillcolor="#fefaf8"] ;
288 -> 294 ;
295 [label="X[20] <= 0.859\nmse = 0.0\nsamples = 32\nvalue = 0.032", fillcolor="#fefbf9"] ;
281 -> 295 ;
296 [label="X[12] <= 0.787\nmse = 0.0\nsamples = 29\nvalue = 0.034", fillcolor="#fefbf8"] ;
295 -> 296 ;
297 [label="X[9] <= 0.178\nmse = 0.0\nsamples = 3\nvalue = 0.025", fillcolor="#fefcfa"] ;
296 -> 297 ;
298 [label="X[5] <= 0.227\nmse = 0.0\nsamples = 2\nvalue = 0.033", fillcolor="#fefbf9"] ;
297 -> 298 ;
299 [label="mse = 0.0\nsamples = 1\nvalue = 0.037", fillcolor="#fefaf8"] ;
298 -> 299 ;
300 [label="mse = 0.0\nsamples = 1\nvalue = 0.028", fillcolor="#fefbf9"] ;
298 -> 300 ;
301 [label="mse = -0.0\nsamples = 1\nvalue = 0.009", fillcolor="#fffefd"] ;
297 -> 301 ;
302 [label="X[11] <= 0.422\nmse = 0.0\nsamples = 26\nvalue = 0.035", fillcolor="#fefbf8"] ;
296 -> 302 ;
303 [label="X[23] <= 0.634\nmse = 0.0\nsamples = 25\nvalue = 0.034", fillcolor="#fefbf8"] ;
302 -> 303 ;
304 [label="X[9] <= 0.227\nmse = 0.0\nsamples = 23\nvalue = 0.033", fillcolor="#fefbf8"] ;
303 -> 304 ;
305 [label="X[9] <= 0.218\nmse = 0.0\nsamples = 16\nvalue = 0.036", fillcolor="#fefbf8"] ;
304 -> 305 ;
306 [label="X[23] <= 0.463\nmse = 0.0\nsamples = 12\nvalue = 0.034", fillcolor="#fefbf8"] ;
305 -> 306 ;
307 [label="mse = 0.0\nsamples = 4\nvalue = 0.037", fillcolor="#fefaf8"] ;
306 -> 307 ;
308 [label="X[10] <= 0.342\nmse = 0.0\nsamples = 8\nvalue = 0.033", fillcolor="#fefbf9"] ;
306 -> 308 ;
309 [label="mse = 0.0\nsamples = 3\nvalue = 0.037", fillcolor="#fefaf8"] ;
308 -> 309 ;
310 [label="X[12] <= 0.797\nmse = 0.0\nsamples = 5\nvalue = 0.03", fillcolor="#fefbf9"] ;
308 -> 310 ;
311 [label="mse = 0.0\nsamples = 1\nvalue = 0.037", fillcolor="#fefaf8"] ;
310 -> 311 ;
312 [label="mse = -0.0\nsamples = 4\nvalue = 0.028", fillcolor="#fefbf9"] ;
310 -> 312 ;
313 [label="X[6] <= 0.761\nmse = 0.0\nsamples = 4\nvalue = 0.04", fillcolor="#fefaf7"] ;
305 -> 313 ;
314 [label="mse = 0.0\nsamples = 3\nvalue = 0.037", fillcolor="#fefaf8"] ;
313 -> 314 ;
315 [label="mse = -0.0\nsamples = 1\nvalue = 0.047", fillcolor="#fef9f6"] ;
313 -> 315 ;
316 [label="X[6] <= 0.757\nmse = 0.0\nsamples = 7\nvalue = 0.028", fillcolor="#fefbf9"] ;
304 -> 316 ;
317 [label="X[4] <= 0.615\nmse = 0.0\nsamples = 6\nvalue = 0.03", fillcolor="#fefbf9"] ;
316 -> 317 ;
318 [label="X[14] <= 0.732\nmse = 0.0\nsamples = 2\nvalue = 0.033", fillcolor="#fefbf9"] ;
317 -> 318 ;
319 [label="mse = 0.0\nsamples = 1\nvalue = 0.037", fillcolor="#fefaf8"] ;
318 -> 319 ;
320 [label="mse = 0.0\nsamples = 1\nvalue = 0.028", fillcolor="#fefbf9"] ;
318 -> 320 ;
321 [label="X[15] <= 0.15\nmse = 0.0\nsamples = 4\nvalue = 0.028", fillcolor="#fefbf9"] ;
317 -> 321 ;
322 [label="mse = 0.0\nsamples = 1\nvalue = 0.028", fillcolor="#fefbf9"] ;
321 -> 322 ;
323 [label="mse = 0.0\nsamples = 3\nvalue = 0.028", fillcolor="#fefbf9"] ;
321 -> 323 ;
324 [label="mse = -0.0\nsamples = 1\nvalue = 0.019", fillcolor="#fffdfb"] ;
316 -> 324 ;
325 [label="X[2] <= 0.43\nmse = 0.0\nsamples = 2\nvalue = 0.042", fillcolor="#fefaf7"] ;
303 -> 325 ;
326 [label="mse = 0.0\nsamples = 1\nvalue = 0.037", fillcolor="#fefaf8"] ;
325 -> 326 ;
327 [label="mse = -0.0\nsamples = 1\nvalue = 0.047", fillcolor="#fef9f6"] ;
325 -> 327 ;
328 [label="mse = -0.0\nsamples = 1\nvalue = 0.047", fillcolor="#fef9f6"] ;
302 -> 328 ;
329 [label="X[7] <= 0.247\nmse = 0.0\nsamples = 3\nvalue = 0.019", fillcolor="#fffdfb"] ;
295 -> 329 ;
330 [label="X[10] <= 0.404\nmse = 0.0\nsamples = 2\nvalue = 0.014", fillcolor="#fffdfc"] ;
329 -> 330 ;
331 [label="mse = 0.0\nsamples = 1\nvalue = 0.019", fillcolor="#fffdfb"] ;
330 -> 331 ;
332 [label="mse = 0.0\nsamples = 1\nvalue = 0.009", fillcolor="#fffefd"] ;
330 -> 332 ;
333 [label="mse = 0.0\nsamples = 1\nvalue = 0.028", fillcolor="#fefbf9"] ;
329 -> 333 ;
334 [label="X[1] <= 0.184\nmse = 0.0\nsamples = 364\nvalue = 0.031", fillcolor="#fefbf9"] ;
6 -> 334 ;
335 [label="X[23] <= 0.101\nmse = 0.0\nsamples = 6\nvalue = 0.045", fillcolor="#fef9f6"] ;
334 -> 335 ;
336 [label="mse = 0.0\nsamples = 1\nvalue = 0.065", fillcolor="#fdf7f2"] ;
335 -> 336 ;
337 [label="X[6] <= 0.531\nmse = 0.0\nsamples = 5\nvalue = 0.041", fillcolor="#fefaf7"] ;
335 -> 337 ;
338 [label="mse = 0.0\nsamples = 3\nvalue = 0.037", fillcolor="#fefaf8"] ;
337 -> 338 ;
339 [label="mse = -0.0\nsamples = 2\nvalue = 0.047", fillcolor="#fef9f6"] ;
337 -> 339 ;
340 [label="X[23] <= 0.158\nmse = 0.0\nsamples = 358\nvalue = 0.031", fillcolor="#fefbf9"] ;
334 -> 340 ;
341 [label="X[20] <= 0.628\nmse = 0.0\nsamples = 68\nvalue = 0.028", fillcolor="#fefbf9"] ;
340 -> 341 ;
342 [label="X[2] <= 0.328\nmse = 0.0\nsamples = 14\nvalue = 0.021", fillcolor="#fefcfb"] ;
341 -> 342 ;
343 [label="X[20] <= 0.626\nmse = 0.0\nsamples = 7\nvalue = 0.029", fillcolor="#fefbf9"] ;
342 -> 343 ;
344 [label="X[12] <= 0.834\nmse = 0.0\nsamples = 4\nvalue = 0.023", fillcolor="#fefcfa"] ;
343 -> 344 ;
345 [label="mse = 0.0\nsamples = 2\nvalue = 0.019", fillcolor="#fffdfb"] ;
344 -> 345 ;
346 [label="mse = -0.0\nsamples = 2\nvalue = 0.028", fillcolor="#fefbf9"] ;
344 -> 346 ;
347 [label="mse = 0.0\nsamples = 3\nvalue = 0.037", fillcolor="#fefaf8"] ;
343 -> 347 ;
348 [label="X[9] <= 0.19\nmse = 0.0\nsamples = 7\nvalue = 0.013", fillcolor="#fffdfc"] ;
342 -> 348 ;
349 [label="X[1] <= 0.261\nmse = 0.0\nsamples = 5\nvalue = 0.009", fillcolor="#fffefd"] ;
348 -> 349 ;
350 [label="mse = 0.0\nsamples = 1\nvalue = 0.0", fillcolor="#ffffff"] ;
349 -> 350 ;
351 [label="X[12] <= 0.863\nmse = 0.0\nsamples = 4\nvalue = 0.012", fillcolor="#fffefd"] ;
349 -> 351 ;
352 [label="mse = -0.0\nsamples = 3\nvalue = 0.009", fillcolor="#fffefd"] ;
351 -> 352 ;
353 [label="mse = 0.0\nsamples = 1\nvalue = 0.019", fillcolor="#fffdfb"] ;
351 -> 353 ;
354 [label="X[23] <= 0.028\nmse = 0.0\nsamples = 2\nvalue = 0.023", fillcolor="#fefcfa"] ;
348 -> 354 ;
355 [label="mse = 0.0\nsamples = 1\nvalue = 0.019", fillcolor="#fffdfb"] ;
354 -> 355 ;
356 [label="mse = -0.0\nsamples = 1\nvalue = 0.028", fillcolor="#fefbf9"] ;
354 -> 356 ;
357 [label="X[20] <= 0.691\nmse = 0.0\nsamples = 54\nvalue = 0.03", fillcolor="#fefbf9"] ;
341 -> 357 ;
358 [label="X[21] <= 0.894\nmse = 0.0\nsamples = 51\nvalue = 0.031", fillcolor="#fefbf9"] ;
357 -> 358 ;
359 [label="X[2] <= 0.357\nmse = 0.0\nsamples = 35\nvalue = 0.033", fillcolor="#fefbf8"] ;
358 -> 359 ;
360 [label="X[20] <= 0.628\nmse = 0.0\nsamples = 34\nvalue = 0.033", fillcolor="#fefbf8"] ;
359 -> 360 ;
361 [label="mse = 0.0\nsamples = 1\nvalue = 0.047", fillcolor="#fef9f6"] ;
360 -> 361 ;
362 [label="X[20] <= 0.631\nmse = 0.0\nsamples = 33\nvalue = 0.033", fillcolor="#fefbf8"] ;
360 -> 362 ;
363 [label="X[24] <= 0.066\nmse = 0.0\nsamples = 10\nvalue = 0.03", fillcolor="#fefbf9"] ;
362 -> 363 ;
364 [label="mse = 0.0\nsamples = 1\nvalue = 0.037", fillcolor="#fefaf8"] ;
363 -> 364 ;
365 [label="X[12] <= 0.835\nmse = 0.0\nsamples = 9\nvalue = 0.029", fillcolor="#fefbf9"] ;
363 -> 365 ;
366 [label="mse = 0.0\nsamples = 1\nvalue = 0.037", fillcolor="#fefaf8"] ;
365 -> 366 ;
367 [label="mse = 0.0\nsamples = 8\nvalue = 0.028", fillcolor="#fefbf9"] ;
365 -> 367 ;
368 [label="X[19] <= 0.001\nmse = 0.0\nsamples = 23\nvalue = 0.034", fillcolor="#fefbf8"] ;
362 -> 368 ;
369 [label="mse = 0.0\nsamples = 2\nvalue = 0.028", fillcolor="#fefbf9"] ;
368 -> 369 ;
370 [label="X[2] <= 0.33\nmse = 0.0\nsamples = 21\nvalue = 0.035", fillcolor="#fefbf8"] ;
368 -> 370 ;
371 [label="mse = 0.0\nsamples = 6\nvalue = 0.037", fillcolor="#fefaf8"] ;
370 -> 371 ;
372 [label="X[11] <= 0.017\nmse = 0.0\nsamples = 15\nvalue = 0.034", fillcolor="#fefbf8"] ;
370 -> 372 ;
373 [label="X[19] <= 0.015\nmse = 0.0\nsamples = 13\nvalue = 0.035", fillcolor="#fefbf8"] ;
372 -> 373 ;
374 [label="X[17] <= 0.154\nmse = 0.0\nsamples = 8\nvalue = 0.033", fillcolor="#fefbf9"] ;
373 -> 374 ;
375 [label="mse = 0.0\nsamples = 2\nvalue = 0.037", fillcolor="#fefaf8"] ;
374 -> 375 ;
376 [label="X[12] <= 0.854\nmse = 0.0\nsamples = 6\nvalue = 0.031", fillcolor="#fefbf9"] ;
374 -> 376 ;
377 [label="X[8] <= 0.466\nmse = 0.0\nsamples = 5\nvalue = 0.03", fillcolor="#fefbf9"] ;
376 -> 377 ;
378 [label="mse = 0.0\nsamples = 4\nvalue = 0.028", fillcolor="#fefbf9"] ;
377 -> 378 ;
379 [label="mse = -0.0\nsamples = 1\nvalue = 0.037", fillcolor="#fefaf8"] ;
377 -> 379 ;
380 [label="mse = 0.0\nsamples = 1\nvalue = 0.037", fillcolor="#fefaf8"] ;
376 -> 380 ;
381 [label="X[17] <= 0.206\nmse = 0.0\nsamples = 5\nvalue = 0.037", fillcolor="#fefaf8"] ;
373 -> 381 ;
382 [label="mse = 0.0\nsamples = 4\nvalue = 0.037", fillcolor="#fefaf8"] ;
381 -> 382 ;
383 [label="mse = 0.0\nsamples = 1\nvalue = 0.037", fillcolor="#fefaf8"] ;
381 -> 383 ;
384 [label="mse = -0.0\nsamples = 2\nvalue = 0.028", fillcolor="#fefbf9"] ;
372 -> 384 ;
385 [label="mse = -0.0\nsamples = 1\nvalue = 0.019", fillcolor="#fffdfb"] ;
359 -> 385 ;
386 [label="X[21] <= 0.902\nmse = 0.0\nsamples = 16\nvalue = 0.026", fillcolor="#fefcfa"] ;
358 -> 386 ;
387 [label="X[17] <= 0.154\nmse = 0.0\nsamples = 4\nvalue = 0.014", fillcolor="#fffdfc"] ;
386 -> 387 ;
388 [label="mse = 0.0\nsamples = 2\nvalue = 0.009", fillcolor="#fffefd"] ;
387 -> 388 ;
389 [label="mse = 0.0\nsamples = 2\nvalue = 0.019", fillcolor="#fffdfb"] ;
387 -> 389 ;
390 [label="X[12] <= 0.867\nmse = 0.0\nsamples = 12\nvalue = 0.03", fillcolor="#fefbf9"] ;
386 -> 390 ;
391 [label="X[12] <= 0.829\nmse = 0.0\nsamples = 10\nvalue = 0.032", fillcolor="#fefbf9"] ;
390 -> 391 ;
392 [label="mse = 0.0\nsamples = 4\nvalue = 0.028", fillcolor="#fefbf9"] ;
391 -> 392 ;
393 [label="X[12] <= 0.847\nmse = 0.0\nsamples = 6\nvalue = 0.034", fillcolor="#fefbf8"] ;
391 -> 393 ;
394 [label="mse = 0.0\nsamples = 3\nvalue = 0.037", fillcolor="#fefaf8"] ;
393 -> 394 ;
395 [label="X[22] <= 0.142\nmse = 0.0\nsamples = 3\nvalue = 0.031", fillcolor="#fefbf9"] ;
393 -> 395 ;
396 [label="mse = 0.0\nsamples = 2\nvalue = 0.028", fillcolor="#fefbf9"] ;
395 -> 396 ;
397 [label="mse = 0.0\nsamples = 1\nvalue = 0.037", fillcolor="#fefaf8"] ;
395 -> 397 ;
398 [label="X[3] <= 0.185\nmse = 0.0\nsamples = 2\nvalue = 0.019", fillcolor="#fffdfb"] ;
390 -> 398 ;
399 [label="mse = 0.0\nsamples = 1\nvalue = 0.019", fillcolor="#fffdfb"] ;
398 -> 399 ;
400 [label="mse = 0.0\nsamples = 1\nvalue = 0.019", fillcolor="#fffdfb"] ;
398 -> 400 ;
401 [label="X[2] <= 0.329\nmse = 0.0\nsamples = 3\nvalue = 0.016", fillcolor="#fffdfc"] ;
357 -> 401 ;
402 [label="mse = 0.0\nsamples = 2\nvalue = 0.019", fillcolor="#fffdfb"] ;
401 -> 402 ;
403 [label="mse = 0.0\nsamples = 1\nvalue = 0.009", fillcolor="#fffefd"] ;
401 -> 403 ;
404 [label="X[23] <= 0.173\nmse = 0.0\nsamples = 290\nvalue = 0.031", fillcolor="#fefbf9"] ;
340 -> 404 ;
405 [label="X[6] <= 0.43\nmse = 0.0\nsamples = 4\nvalue = 0.044", fillcolor="#fef9f6"] ;
404 -> 405 ;
406 [label="X[16] <= 0.385\nmse = 0.0\nsamples = 2\nvalue = 0.042", fillcolor="#fefaf7"] ;
405 -> 406 ;
407 [label="mse = 0.0\nsamples = 1\nvalue = 0.037", fillcolor="#fefaf8"] ;
406 -> 407 ;
408 [label="mse = -0.0\nsamples = 1\nvalue = 0.047", fillcolor="#fef9f6"] ;
406 -> 408 ;
409 [label="mse = -0.0\nsamples = 2\nvalue = 0.047", fillcolor="#fef9f6"] ;
405 -> 409 ;
410 [label="X[9] <= 0.316\nmse = 0.0\nsamples = 286\nvalue = 0.031", fillcolor="#fefbf9"] ;
404 -> 410 ;
411 [label="X[9] <= 0.283\nmse = 0.0\nsamples = 279\nvalue = 0.031", fillcolor="#fefbf9"] ;
410 -> 411 ;
412 [label="X[19] <= 0.488\nmse = 0.0\nsamples = 243\nvalue = 0.031", fillcolor="#fefbf9"] ;
411 -> 412 ;
413 [label="X[19] <= 0.334\nmse = 0.0\nsamples = 234\nvalue = 0.031", fillcolor="#fefbf9"] ;
412 -> 413 ;
414 [label="X[22] <= 0.562\nmse = 0.0\nsamples = 189\nvalue = 0.03", fillcolor="#fefbf9"] ;
413 -> 414 ;
415 [label="X[15] <= 0.262\nmse = 0.0\nsamples = 179\nvalue = 0.031", fillcolor="#fefbf9"] ;
414 -> 415 ;
416 [label="X[24] <= 0.161\nmse = 0.0\nsamples = 9\nvalue = 0.025", fillcolor="#fefcfa"] ;
415 -> 416 ;
417 [label="X[10] <= 0.507\nmse = 0.0\nsamples = 6\nvalue = 0.03", fillcolor="#fefbf9"] ;
416 -> 417 ;
418 [label="X[1] <= 0.193\nmse = 0.0\nsamples = 5\nvalue = 0.028", fillcolor="#fefbf9"] ;
417 -> 418 ;
419 [label="mse = 0.0\nsamples = 1\nvalue = 0.028", fillcolor="#fefbf9"] ;
418 -> 419 ;
420 [label="X[13] <= 0.062\nmse = 0.0\nsamples = 4\nvalue = 0.028", fillcolor="#fefbf9"] ;
418 -> 420 ;
421 [label="mse = 0.0\nsamples = 1\nvalue = 0.028", fillcolor="#fefbf9"] ;
420 -> 421 ;
422 [label="mse = 0.0\nsamples = 3\nvalue = 0.028", fillcolor="#fefbf9"] ;
420 -> 422 ;
423 [label="mse = 0.0\nsamples = 1\nvalue = 0.037", fillcolor="#fefaf8"] ;
417 -> 423 ;
424 [label="X[19] <= 0.202\nmse = 0.0\nsamples = 3\nvalue = 0.016", fillcolor="#fffdfc"] ;
416 -> 424 ;
425 [label="mse = 0.0\nsamples = 2\nvalue = 0.019", fillcolor="#fffdfb"] ;
424 -> 425 ;
426 [label="mse = 0.0\nsamples = 1\nvalue = 0.009", fillcolor="#fffefd"] ;
424 -> 426 ;
427 [label="X[19] <= 0.139\nmse = 0.0\nsamples = 170\nvalue = 0.031", fillcolor="#fefbf9"] ;
415 -> 427 ;
428 [label="X[10] <= 0.416\nmse = 0.0\nsamples = 17\nvalue = 0.036", fillcolor="#fefaf8"] ;
427 -> 428 ;
429 [label="X[14] <= 0.378\nmse = 0.0\nsamples = 14\nvalue = 0.034", fillcolor="#fefbf8"] ;
428 -> 429 ;
430 [label="X[22] <= 0.08\nmse = 0.0\nsamples = 7\nvalue = 0.029", fillcolor="#fefbf9"] ;
429 -> 430 ;
431 [label="X[11] <= 0.194\nmse = 0.0\nsamples = 2\nvalue = 0.033", fillcolor="#fefbf9"] ;
430 -> 431 ;
432 [label="mse = 0.0\nsamples = 1\nvalue = 0.028", fillcolor="#fefbf9"] ;
431 -> 432 ;
433 [label="mse = 0.0\nsamples = 1\nvalue = 0.037", fillcolor="#fefaf8"] ;
431 -> 433 ;
434 [label="X[1] <= 0.218\nmse = 0.0\nsamples = 5\nvalue = 0.028", fillcolor="#fefbf9"] ;
430 -> 434 ;
435 [label="mse = 0.0\nsamples = 2\nvalue = 0.028", fillcolor="#fefbf9"] ;
434 -> 435 ;
436 [label="X[18] <= 0.521\nmse = 0.0\nsamples = 3\nvalue = 0.028", fillcolor="#fefbf9"] ;
434 -> 436 ;
437 [label="mse = 0.0\nsamples = 1\nvalue = 0.028", fillcolor="#fefbf9"] ;
436 -> 437 ;
438 [label="X[10] <= 0.412\nmse = 0.0\nsamples = 2\nvalue = 0.028", fillcolor="#fefbf9"] ;
436 -> 438 ;
439 [label="mse = 0.0\nsamples = 1\nvalue = 0.028", fillcolor="#fefbf9"] ;
438 -> 439 ;
440 [label="mse = 0.0\nsamples = 1\nvalue = 0.028", fillcolor="#fefbf9"] ;
438 -> 440 ;
441 [label="X[7] <= 0.244\nmse = 0.0\nsamples = 7\nvalue = 0.039", fillcolor="#fefaf7"] ;
429 -> 441 ;
442 [label="X[11] <= 0.194\nmse = 0.0\nsamples = 6\nvalue = 0.04", fillcolor="#fefaf7"] ;
441 -> 442 ;
443 [label="X[14] <= 0.378\nmse = 0.0\nsamples = 5\nvalue = 0.039", fillcolor="#fefaf7"] ;
442 -> 443 ;
444 [label="mse = 0.0\nsamples = 1\nvalue = 0.047", fillcolor="#fef9f6"] ;
443 -> 444 ;
445 [label="X[1] <= 0.203\nmse = 0.0\nsamples = 4\nvalue = 0.037", fillcolor="#fefaf8"] ;
443 -> 445 ;
446 [label="mse = 0.0\nsamples = 1\nvalue = 0.037", fillcolor="#fefaf8"] ;
445 -> 446 ;
447 [label="mse = 0.0\nsamples = 3\nvalue = 0.037", fillcolor="#fefaf8"] ;
445 -> 447 ;
448 [label="mse = -0.0\nsamples = 1\nvalue = 0.047", fillcolor="#fef9f6"] ;
442 -> 448 ;
449 [label="mse = 0.0\nsamples = 1\nvalue = 0.028", fillcolor="#fefbf9"] ;
441 -> 449 ;
450 [label="X[4] <= 0.491\nmse = 0.0\nsamples = 3\nvalue = 0.044", fillcolor="#fefaf6"] ;
428 -> 450 ;
451 [label="mse = 0.0\nsamples = 1\nvalue = 0.037", fillcolor="#fefaf8"] ;
450 -> 451 ;
452 [label="mse = -0.0\nsamples = 2\nvalue = 0.047", fillcolor="#fef9f6"] ;
450 -> 452 ;
453 [label="X[19] <= 0.148\nmse = 0.0\nsamples = 153\nvalue = 0.031", fillcolor="#fefbf9"] ;
427 -> 453 ;
454 [label="X[21] <= 0.88\nmse = 0.0\nsamples = 6\nvalue = 0.022", fillcolor="#fefcfb"] ;
453 -> 454 ;
455 [label="X[3] <= 0.213\nmse = 0.0\nsamples = 4\nvalue = 0.016", fillcolor="#fffdfc"] ;
454 -> 455 ;
456 [label="mse = 0.0\nsamples = 3\nvalue = 0.019", fillcolor="#fffdfb"] ;
455 -> 456 ;
457 [label="mse = 0.0\nsamples = 1\nvalue = 0.009", fillcolor="#fffefd"] ;
455 -> 457 ;
458 [label="X[15] <= 0.321\nmse = 0.0\nsamples = 2\nvalue = 0.033", fillcolor="#fefbf9"] ;
454 -> 458 ;
459 [label="mse = 0.0\nsamples = 1\nvalue = 0.037", fillcolor="#fefaf8"] ;
458 -> 459 ;
460 [label="mse = 0.0\nsamples = 1\nvalue = 0.028", fillcolor="#fefbf9"] ;
458 -> 460 ;
461 [label="X[24] <= 0.031\nmse = 0.0\nsamples = 147\nvalue = 0.031", fillcolor="#fefbf9"] ;
453 -> 461 ;
462 [label="X[24] <= 0.017\nmse = 0.0\nsamples = 14\nvalue = 0.037", fillcolor="#fefaf8"] ;
461 -> 462 ;
463 [label="X[20] <= 0.937\nmse = 0.0\nsamples = 9\nvalue = 0.034", fillcolor="#fefbf8"] ;
462 -> 463 ;
464 [label="X[7] <= 0.36\nmse = 0.0\nsamples = 8\nvalue = 0.033", fillcolor="#fefbf9"] ;
463 -> 464 ;
465 [label="X[17] <= 0.268\nmse = 0.0\nsamples = 6\nvalue = 0.03", fillcolor="#fefbf9"] ;
464 -> 465 ;
466 [label="X[16] <= 0.423\nmse = 0.0\nsamples = 5\nvalue = 0.028", fillcolor="#fefbf9"] ;
465 -> 466 ;
467 [label="mse = 0.0\nsamples = 1\nvalue = 0.028", fillcolor="#fefbf9"] ;
466 -> 467 ;
468 [label="X[14] <= 0.34\nmse = 0.0\nsamples = 4\nvalue = 0.028", fillcolor="#fefbf9"] ;
466 -> 468 ;
469 [label="mse = 0.0\nsamples = 1\nvalue = 0.028", fillcolor="#fefbf9"] ;
468 -> 469 ;
470 [label="mse = 0.0\nsamples = 3\nvalue = 0.028", fillcolor="#fefbf9"] ;
468 -> 470 ;
471 [label="mse = -0.0\nsamples = 1\nvalue = 0.037", fillcolor="#fefaf8"] ;
465 -> 471 ;
472 [label="X[19] <= 0.159\nmse = 0.0\nsamples = 2\nvalue = 0.042", fillcolor="#fefaf7"] ;
464 -> 472 ;
473 [label="mse = 0.0\nsamples = 1\nvalue = 0.037", fillcolor="#fefaf8"] ;
472 -> 473 ;
474 [label="mse = -0.0\nsamples = 1\nvalue = 0.047", fillcolor="#fef9f6"] ;
472 -> 474 ;
475 [label="mse = 0.0\nsamples = 1\nvalue = 0.047", fillcolor="#fef9f6"] ;
463 -> 475 ;
476 [label="X[24] <= 0.024\nmse = 0.0\nsamples = 5\nvalue = 0.041", fillcolor="#fefaf7"] ;
462 -> 476 ;
477 [label="mse = 0.0\nsamples = 2\nvalue = 0.047", fillcolor="#fef9f6"] ;
476 -> 477 ;
478 [label="mse = -0.0\nsamples = 3\nvalue = 0.037", fillcolor="#fefaf8"] ;
476 -> 478 ;
479 [label="X[16] <= 0.409\nmse = 0.0\nsamples = 133\nvalue = 0.03", fillcolor="#fefbf9"] ;
461 -> 479 ;
480 [label="mse = 0.0\nsamples = 2\nvalue = 0.009", fillcolor="#fffefd"] ;
479 -> 480 ;
481 [label="X[9] <= 0.266\nmse = 0.0\nsamples = 131\nvalue = 0.031", fillcolor="#fefbf9"] ;
479 -> 481 ;
482 [label="X[9] <= 0.212\nmse = 0.0\nsamples = 120\nvalue = 0.031", fillcolor="#fefbf9"] ;
481 -> 482 ;
483 [label="X[7] <= 0.363\nmse = 0.0\nsamples = 50\nvalue = 0.029", fillcolor="#fefbf9"] ;
482 -> 483 ;
484 [label="X[24] <= 0.038\nmse = 0.0\nsamples = 45\nvalue = 0.031", fillcolor="#fefbf9"] ;
483 -> 484 ;
485 [label="mse = 0.0\nsamples = 2\nvalue = 0.019", fillcolor="#fffdfb"] ;
484 -> 485 ;
486 [label="X[5] <= 0.248\nmse = 0.0\nsamples = 43\nvalue = 0.031", fillcolor="#fefbf9"] ;
484 -> 486 ;
487 [label="X[24] <= 0.185\nmse = 0.0\nsamples = 34\nvalue = 0.032", fillcolor="#fefbf9"] ;
486 -> 487 ;
488 [label="X[24] <= 0.122\nmse = 0.0\nsamples = 25\nvalue = 0.034", fillcolor="#fefbf8"] ;
487 -> 488 ;
489 [label="X[6] <= 0.421\nmse = 0.0\nsamples = 19\nvalue = 0.033", fillcolor="#fefbf8"] ;
488 -> 489 ;
490 [label="X[19] <= 0.167\nmse = 0.0\nsamples = 6\nvalue = 0.036", fillcolor="#fefaf8"] ;
489 -> 490 ;
491 [label="mse = 0.0\nsamples = 1\nvalue = 0.028", fillcolor="#fefbf9"] ;
490 -> 491 ;
492 [label="mse = 0.0\nsamples = 5\nvalue = 0.037", fillcolor="#fefaf8"] ;
490 -> 492 ;
493 [label="X[7] <= 0.158\nmse = 0.0\nsamples = 13\nvalue = 0.032", fillcolor="#fefbf9"] ;
489 -> 493 ;
494 [label="X[12] <= 0.947\nmse = 0.0\nsamples = 8\nvalue = 0.034", fillcolor="#fefbf8"] ;
493 -> 494 ;
495 [label="mse = 0.0\nsamples = 3\nvalue = 0.037", fillcolor="#fefaf8"] ;
494 -> 495 ;
496 [label="X[10] <= 0.32\nmse = 0.0\nsamples = 5\nvalue = 0.032", fillcolor="#fefbf9"] ;
494 -> 496 ;
497 [label="mse = 0.0\nsamples = 2\nvalue = 0.028", fillcolor="#fefbf9"] ;
496 -> 497 ;
498 [label="X[16] <= 0.759\nmse = 0.0\nsamples = 3\nvalue = 0.034", fillcolor="#fefbf8"] ;
496 -> 498 ;
499 [label="mse = 0.0\nsamples = 2\nvalue = 0.037", fillcolor="#fefaf8"] ;
498 -> 499 ;
500 [label="mse = 0.0\nsamples = 1\nvalue = 0.028", fillcolor="#fefbf9"] ;
498 -> 500 ;
501 [label="mse = -0.0\nsamples = 5\nvalue = 0.028", fillcolor="#fefbf9"] ;
493 -> 501 ;
502 [label="X[19] <= 0.164\nmse = 0.0\nsamples = 6\nvalue = 0.037", fillcolor="#fefaf8"] ;
488 -> 502 ;
503 [label="mse = 0.0\nsamples = 1\nvalue = 0.037", fillcolor="#fefaf8"] ;
502 -> 503 ;
504 [label="mse = -0.0\nsamples = 5\nvalue = 0.037", fillcolor="#fefaf8"] ;
502 -> 504 ;
505 [label="X[11] <= 0.211\nmse = 0.0\nsamples = 9\nvalue = 0.028", fillcolor="#fefbf9"] ;
487 -> 505 ;
506 [label="X[21] <= 0.997\nmse = 0.0\nsamples = 8\nvalue = 0.03", fillcolor="#fefbf9"] ;
505 -> 506 ;
507 [label="X[9] <= 0.171\nmse = 0.0\nsamples = 5\nvalue = 0.028", fillcolor="#fefbf9"] ;
506 -> 507 ;
508 [label="mse = 0.0\nsamples = 2\nvalue = 0.028", fillcolor="#fefbf9"] ;
507 -> 508 ;
509 [label="X[15] <= 0.392\nmse = 0.0\nsamples = 3\nvalue = 0.028", fillcolor="#fefbf9"] ;
507 -> 509 ;
510 [label="mse = 0.0\nsamples = 1\nvalue = 0.028", fillcolor="#fefbf9"] ;
509 -> 510 ;
511 [label="X[10] <= 0.418\nmse = 0.0\nsamples = 2\nvalue = 0.028", fillcolor="#fefbf9"] ;
509 -> 511 ;
512 [label="mse = 0.0\nsamples = 1\nvalue = 0.028", fillcolor="#fefbf9"] ;
511 -> 512 ;
513 [label="mse = 0.0\nsamples = 1\nvalue = 0.028", fillcolor="#fefbf9"] ;
511 -> 513 ;
514 [label="X[5] <= 0.209\nmse = 0.0\nsamples = 3\nvalue = 0.034", fillcolor="#fefbf8"] ;
506 -> 514 ;
515 [label="mse = 0.0\nsamples = 2\nvalue = 0.037", fillcolor="#fefaf8"] ;
514 -> 515 ;
516 [label="mse = 0.0\nsamples = 1\nvalue = 0.028", fillcolor="#fefbf9"] ;
514 -> 516 ;
517 [label="mse = 0.0\nsamples = 1\nvalue = 0.009", fillcolor="#fffefd"] ;
505 -> 517 ;
518 [label="X[21] <= 0.988\nmse = 0.0\nsamples = 9\nvalue = 0.026", fillcolor="#fefcfa"] ;
486 -> 518 ;
519 [label="mse = 0.0\nsamples = 4\nvalue = 0.019", fillcolor="#fffdfb"] ;
518 -> 519 ;
520 [label="X[19] <= 0.182\nmse = 0.0\nsamples = 5\nvalue = 0.032", fillcolor="#fefbf9"] ;
518 -> 520 ;
521 [label="mse = 0.0\nsamples = 2\nvalue = 0.028", fillcolor="#fefbf9"] ;
520 -> 521 ;
522 [label="X[13] <= 0.192\nmse = 0.0\nsamples = 3\nvalue = 0.034", fillcolor="#fefbf8"] ;
520 -> 522 ;
523 [label="mse = 0.0\nsamples = 2\nvalue = 0.037", fillcolor="#fefaf8"] ;
522 -> 523 ;
524 [label="mse = -0.0\nsamples = 1\nvalue = 0.028", fillcolor="#fefbf9"] ;
522 -> 524 ;
525 [label="X[20] <= 0.422\nmse = 0.0\nsamples = 5\nvalue = 0.019", fillcolor="#fffdfb"] ;
483 -> 525 ;
526 [label="X[21] <= 0.963\nmse = 0.0\nsamples = 4\nvalue = 0.014", fillcolor="#fffdfc"] ;
525 -> 526 ;
527 [label="mse = 0.0\nsamples = 2\nvalue = 0.009", fillcolor="#fffefd"] ;
526 -> 527 ;
528 [label="mse = 0.0\nsamples = 2\nvalue = 0.019", fillcolor="#fffdfb"] ;
526 -> 528 ;
529 [label="mse = 0.0\nsamples = 1\nvalue = 0.037", fillcolor="#fefaf8"] ;
525 -> 529 ;
530 [label="X[14] <= 0.587\nmse = 0.0\nsamples = 70\nvalue = 0.033", fillcolor="#fefbf8"] ;
482 -> 530 ;
531 [label="X[8] <= 0.325\nmse = 0.0\nsamples = 45\nvalue = 0.034", fillcolor="#fefbf8"] ;
530 -> 531 ;
532 [label="mse = 0.0\nsamples = 1\nvalue = 0.047", fillcolor="#fef9f6"] ;
531 -> 532 ;
533 [label="X[12] <= 0.54\nmse = 0.0\nsamples = 44\nvalue = 0.034", fillcolor="#fefbf8"] ;
531 -> 533 ;
534 [label="X[3] <= 0.076\nmse = 0.0\nsamples = 7\nvalue = 0.029", fillcolor="#fefbf9"] ;
533 -> 534 ;
535 [label="mse = 0.0\nsamples = 1\nvalue = 0.019", fillcolor="#fffdfb"] ;
534 -> 535 ;
536 [label="X[17] <= 0.255\nmse = 0.0\nsamples = 6\nvalue = 0.031", fillcolor="#fefbf9"] ;
534 -> 536 ;
537 [label="mse = 0.0\nsamples = 1\nvalue = 0.037", fillcolor="#fefaf8"] ;
536 -> 537 ;
538 [label="X[16] <= 0.516\nmse = 0.0\nsamples = 5\nvalue = 0.03", fillcolor="#fefbf9"] ;
536 -> 538 ;
539 [label="mse = 0.0\nsamples = 3\nvalue = 0.028", fillcolor="#fefbf9"] ;
538 -> 539 ;
540 [label="X[7] <= 0.514\nmse = 0.0\nsamples = 2\nvalue = 0.033", fillcolor="#fefbf9"] ;
538 -> 540 ;
541 [label="mse = 0.0\nsamples = 1\nvalue = 0.028", fillcolor="#fefbf9"] ;
540 -> 541 ;
542 [label="mse = 0.0\nsamples = 1\nvalue = 0.037", fillcolor="#fefaf8"] ;
540 -> 542 ;
543 [label="X[12] <= 0.763\nmse = 0.0\nsamples = 37\nvalue = 0.035", fillcolor="#fefbf8"] ;
533 -> 543 ;
544 [label="mse = 0.0\nsamples = 10\nvalue = 0.037", fillcolor="#fefaf8"] ;
543 -> 544 ;
545 [label="X[12] <= 0.766\nmse = 0.0\nsamples = 27\nvalue = 0.034", fillcolor="#fefbf8"] ;
543 -> 545 ;
546 [label="mse = 0.0\nsamples = 3\nvalue = 0.028", fillcolor="#fefbf9"] ;
545 -> 546 ;
547 [label="X[24] <= 0.136\nmse = 0.0\nsamples = 24\nvalue = 0.035", fillcolor="#fefbf8"] ;
545 -> 547 ;
548 [label="X[8] <= 0.674\nmse = 0.0\nsamples = 8\nvalue = 0.037", fillcolor="#fefaf8"] ;
547 -> 548 ;
549 [label="X[13] <= 0.152\nmse = 0.0\nsamples = 6\nvalue = 0.039", fillcolor="#fefaf7"] ;
548 -> 549 ;
550 [label="mse = 0.0\nsamples = 1\nvalue = 0.047", fillcolor="#fef9f6"] ;
549 -> 550 ;
551 [label="mse = 0.0\nsamples = 5\nvalue = 0.037", fillcolor="#fefaf8"] ;
549 -> 551 ;
552 [label="X[13] <= 0.153\nmse = 0.0\nsamples = 2\nvalue = 0.033", fillcolor="#fefbf9"] ;
548 -> 552 ;
553 [label="mse = 0.0\nsamples = 1\nvalue = 0.037", fillcolor="#fefaf8"] ;
552 -> 553 ;
554 [label="mse = 0.0\nsamples = 1\nvalue = 0.028", fillcolor="#fefbf9"] ;
552 -> 554 ;
555 [label="X[21] <= 0.928\nmse = 0.0\nsamples = 16\nvalue = 0.034", fillcolor="#fefbf8"] ;
547 -> 555 ;
556 [label="X[24] <= 0.164\nmse = 0.0\nsamples = 14\nvalue = 0.035", fillcolor="#fefbf8"] ;
555 -> 556 ;
557 [label="X[16] <= 0.464\nmse = 0.0\nsamples = 7\nvalue = 0.032", fillcolor="#fefbf9"] ;
556 -> 557 ;
558 [label="mse = 0.0\nsamples = 2\nvalue = 0.037", fillcolor="#fefaf8"] ;
557 -> 558 ;
559 [label="X[19] <= 0.296\nmse = 0.0\nsamples = 5\nvalue = 0.03", fillcolor="#fefbf9"] ;
557 -> 559 ;
560 [label="mse = 0.0\nsamples = 3\nvalue = 0.028", fillcolor="#fefbf9"] ;
559 -> 560 ;
561 [label="X[20] <= 0.594\nmse = 0.0\nsamples = 2\nvalue = 0.033", fillcolor="#fefbf9"] ;
559 -> 561 ;
562 [label="mse = 0.0\nsamples = 1\nvalue = 0.037", fillcolor="#fefaf8"] ;
561 -> 562 ;
563 [label="mse = 0.0\nsamples = 1\nvalue = 0.028", fillcolor="#fefbf9"] ;
561 -> 563 ;
564 [label="X[7] <= 0.221\nmse = 0.0\nsamples = 7\nvalue = 0.037", fillcolor="#fefaf8"] ;
556 -> 564 ;
565 [label="mse = 0.0\nsamples = 2\nvalue = 0.037", fillcolor="#fefaf8"] ;
564 -> 565 ;
566 [label="mse = -0.0\nsamples = 5\nvalue = 0.037", fillcolor="#fefaf8"] ;
564 -> 566 ;
567 [label="mse = -0.0\nsamples = 2\nvalue = 0.028", fillcolor="#fefbf9"] ;
555 -> 567 ;
568 [label="X[9] <= 0.229\nmse = 0.0\nsamples = 25\nvalue = 0.03", fillcolor="#fefbf9"] ;
530 -> 568 ;
569 [label="X[14] <= 0.589\nmse = 0.0\nsamples = 12\nvalue = 0.033", fillcolor="#fefbf8"] ;
568 -> 569 ;
570 [label="mse = 0.0\nsamples = 1\nvalue = 0.047", fillcolor="#fef9f6"] ;
569 -> 570 ;
571 [label="X[22] <= 0.426\nmse = 0.0\nsamples = 11\nvalue = 0.032", fillcolor="#fefbf9"] ;
569 -> 571 ;
572 [label="X[6] <= 0.726\nmse = 0.0\nsamples = 9\nvalue = 0.031", fillcolor="#fefbf9"] ;
571 -> 572 ;
573 [label="X[18] <= 0.722\nmse = 0.0\nsamples = 5\nvalue = 0.028", fillcolor="#fefbf9"] ;
572 -> 573 ;
574 [label="mse = 0.0\nsamples = 1\nvalue = 0.028", fillcolor="#fefbf9"] ;
573 -> 574 ;
575 [label="X[5] <= 0.259\nmse = 0.0\nsamples = 4\nvalue = 0.028", fillcolor="#fefbf9"] ;
573 -> 575 ;
576 [label="mse = 0.0\nsamples = 1\nvalue = 0.028", fillcolor="#fefbf9"] ;
575 -> 576 ;
577 [label="mse = 0.0\nsamples = 3\nvalue = 0.028", fillcolor="#fefbf9"] ;
575 -> 577 ;
578 [label="X[15] <= 0.321\nmse = 0.0\nsamples = 4\nvalue = 0.035", fillcolor="#fefbf8"] ;
572 -> 578 ;
579 [label="mse = 0.0\nsamples = 1\nvalue = 0.028", fillcolor="#fefbf9"] ;
578 -> 579 ;
580 [label="mse = 0.0\nsamples = 3\nvalue = 0.037", fillcolor="#fefaf8"] ;
578 -> 580 ;
581 [label="X[18] <= 0.723\nmse = 0.0\nsamples = 2\nvalue = 0.037", fillcolor="#fefaf8"] ;
571 -> 581 ;
582 [label="mse = 0.0\nsamples = 1\nvalue = 0.037", fillcolor="#fefaf8"] ;
581 -> 582 ;
583 [label="mse = 0.0\nsamples = 1\nvalue = 0.037", fillcolor="#fefaf8"] ;
581 -> 583 ;
584 [label="X[15] <= 0.345\nmse = 0.0\nsamples = 13\nvalue = 0.027", fillcolor="#fefcfa"] ;
568 -> 584 ;
585 [label="X[4] <= 0.58\nmse = 0.0\nsamples = 11\nvalue = 0.028", fillcolor="#fefbf9"] ;
584 -> 585 ;
586 [label="mse = 0.0\nsamples = 2\nvalue = 0.019", fillcolor="#fffdfb"] ;
585 -> 586 ;
587 [label="X[2] <= 0.416\nmse = 0.0\nsamples = 9\nvalue = 0.03", fillcolor="#fefbf9"] ;
585 -> 587 ;
588 [label="X[18] <= 0.692\nmse = 0.0\nsamples = 6\nvalue = 0.031", fillcolor="#fefbf9"] ;
587 -> 588 ;
589 [label="X[6] <= 0.685\nmse = 0.0\nsamples = 5\nvalue = 0.03", fillcolor="#fefbf9"] ;
588 -> 589 ;
590 [label="mse = 0.0\nsamples = 4\nvalue = 0.028", fillcolor="#fefbf9"] ;
589 -> 590 ;
591 [label="mse = -0.0\nsamples = 1\nvalue = 0.037", fillcolor="#fefaf8"] ;
589 -> 591 ;
592 [label="mse = 0.0\nsamples = 1\nvalue = 0.037", fillcolor="#fefaf8"] ;
588 -> 592 ;
593 [label="mse = -0.0\nsamples = 3\nvalue = 0.028", fillcolor="#fefbf9"] ;
587 -> 593 ;
594 [label="mse = -0.0\nsamples = 2\nvalue = 0.019", fillcolor="#fffdfb"] ;
584 -> 594 ;
595 [label="X[9] <= 0.277\nmse = 0.0\nsamples = 11\nvalue = 0.025", fillcolor="#fefcfa"] ;
481 -> 595 ;
596 [label="X[18] <= 0.46\nmse = 0.0\nsamples = 8\nvalue = 0.021", fillcolor="#fefcfb"] ;
595 -> 596 ;
597 [label="X[18] <= 0.451\nmse = 0.0\nsamples = 4\nvalue = 0.026", fillcolor="#fefcfa"] ;
596 -> 597 ;
598 [label="mse = 0.0\nsamples = 2\nvalue = 0.028", fillcolor="#fefbf9"] ;
597 -> 598 ;
599 [label="X[19] <= 0.272\nmse = 0.0\nsamples = 2\nvalue = 0.023", fillcolor="#fefcfa"] ;
597 -> 599 ;
600 [label="mse = 0.0\nsamples = 1\nvalue = 0.019", fillcolor="#fffdfb"] ;
599 -> 600 ;
601 [label="mse = -0.0\nsamples = 1\nvalue = 0.028", fillcolor="#fefbf9"] ;
599 -> 601 ;
602 [label="X[16] <= 0.592\nmse = 0.0\nsamples = 4\nvalue = 0.016", fillcolor="#fffdfc"] ;
596 -> 602 ;
603 [label="mse = 0.0\nsamples = 1\nvalue = 0.009", fillcolor="#fffefd"] ;
602 -> 603 ;
604 [label="mse = 0.0\nsamples = 3\nvalue = 0.019", fillcolor="#fffdfb"] ;
602 -> 604 ;
605 [label="X[6] <= 0.743\nmse = 0.0\nsamples = 3\nvalue = 0.034", fillcolor="#fefbf8"] ;
595 -> 605 ;
606 [label="mse = 0.0\nsamples = 2\nvalue = 0.037", fillcolor="#fefaf8"] ;
605 -> 606 ;
607 [label="mse = 0.0\nsamples = 1\nvalue = 0.028", fillcolor="#fefbf9"] ;
605 -> 607 ;
608 [label="X[12] <= 0.879\nmse = 0.0\nsamples = 10\nvalue = 0.022", fillcolor="#fefcfb"] ;
414 -> 608 ;
609 [label="X[21] <= 0.902\nmse = 0.0\nsamples = 8\nvalue = 0.019", fillcolor="#fffdfb"] ;
608 -> 609 ;
610 [label="X[12] <= 0.77\nmse = 0.0\nsamples = 6\nvalue = 0.022", fillcolor="#fefcfb"] ;
609 -> 610 ;
611 [label="mse = 0.0\nsamples = 3\nvalue = 0.019", fillcolor="#fffdfb"] ;
610 -> 611 ;
612 [label="X[12] <= 0.854\nmse = 0.0\nsamples = 3\nvalue = 0.025", fillcolor="#fefcfa"] ;
610 -> 612 ;
613 [label="mse = 0.0\nsamples = 2\nvalue = 0.028", fillcolor="#fefbf9"] ;
612 -> 613 ;
614 [label="mse = -0.0\nsamples = 1\nvalue = 0.019", fillcolor="#fffdfb"] ;
612 -> 614 ;
615 [label="X[5] <= 0.287\nmse = 0.0\nsamples = 2\nvalue = 0.009", fillcolor="#fffefd"] ;
609 -> 615 ;
616 [label="mse = 0.0\nsamples = 1\nvalue = 0.009", fillcolor="#fffefd"] ;
615 -> 616 ;
617 [label="mse = 0.0\nsamples = 1\nvalue = 0.009", fillcolor="#fffefd"] ;
615 -> 617 ;
618 [label="mse = -0.0\nsamples = 2\nvalue = 0.037", fillcolor="#fefaf8"] ;
608 -> 618 ;
619 [label="X[6] <= 0.345\nmse = 0.0\nsamples = 45\nvalue = 0.034", fillcolor="#fefbf8"] ;
413 -> 619 ;
620 [label="mse = 0.0\nsamples = 2\nvalue = 0.019", fillcolor="#fffdfb"] ;
619 -> 620 ;
621 [label="X[24] <= 0.22\nmse = 0.0\nsamples = 43\nvalue = 0.034", fillcolor="#fefbf8"] ;
619 -> 621 ;
622 [label="X[19] <= 0.338\nmse = 0.0\nsamples = 32\nvalue = 0.036", fillcolor="#fefaf8"] ;
621 -> 622 ;
623 [label="X[14] <= 0.315\nmse = 0.0\nsamples = 4\nvalue = 0.042", fillcolor="#fefaf7"] ;
622 -> 623 ;
624 [label="mse = 0.0\nsamples = 1\nvalue = 0.037", fillcolor="#fefaf8"] ;
623 -> 624 ;
625 [label="X[22] <= 0.722\nmse = 0.0\nsamples = 3\nvalue = 0.044", fillcolor="#fefaf6"] ;
623 -> 625 ;
626 [label="mse = 0.0\nsamples = 1\nvalue = 0.037", fillcolor="#fefaf8"] ;
625 -> 626 ;
627 [label="mse = -0.0\nsamples = 2\nvalue = 0.047", fillcolor="#fef9f6"] ;
625 -> 627 ;
628 [label="X[8] <= 0.389\nmse = 0.0\nsamples = 28\nvalue = 0.035", fillcolor="#fefbf8"] ;
622 -> 628 ;
629 [label="X[4] <= 0.487\nmse = 0.0\nsamples = 2\nvalue = 0.042", fillcolor="#fefaf7"] ;
628 -> 629 ;
630 [label="mse = 0.0\nsamples = 1\nvalue = 0.037", fillcolor="#fefaf8"] ;
629 -> 630 ;
631 [label="mse = -0.0\nsamples = 1\nvalue = 0.047", fillcolor="#fef9f6"] ;
629 -> 631 ;
632 [label="X[24] <= 0.164\nmse = 0.0\nsamples = 26\nvalue = 0.035", fillcolor="#fefbf8"] ;
628 -> 632 ;
633 [label="X[23] <= 0.722\nmse = 0.0\nsamples = 12\nvalue = 0.033", fillcolor="#fefbf9"] ;
632 -> 633 ;
634 [label="X[2] <= 0.46\nmse = 0.0\nsamples = 10\nvalue = 0.034", fillcolor="#fefbf8"] ;
633 -> 634 ;
635 [label="X[7] <= 0.504\nmse = 0.0\nsamples = 9\nvalue = 0.034", fillcolor="#fefbf8"] ;
634 -> 635 ;
636 [label="X[14] <= 0.309\nmse = 0.0\nsamples = 8\nvalue = 0.035", fillcolor="#fefbf8"] ;
635 -> 636 ;
637 [label="X[1] <= 0.295\nmse = 0.0\nsamples = 4\nvalue = 0.033", fillcolor="#fefbf9"] ;
636 -> 637 ;
638 [label="mse = 0.0\nsamples = 1\nvalue = 0.028", fillcolor="#fefbf9"] ;
637 -> 638 ;
639 [label="X[19] <= 0.35\nmse = 0.0\nsamples = 3\nvalue = 0.034", fillcolor="#fefbf8"] ;
637 -> 639 ;
640 [label="mse = 0.0\nsamples = 1\nvalue = 0.037", fillcolor="#fefaf8"] ;
639 -> 640 ;
641 [label="X[23] <= 0.41\nmse = 0.0\nsamples = 2\nvalue = 0.033", fillcolor="#fefbf9"] ;
639 -> 641 ;
642 [label="mse = 0.0\nsamples = 1\nvalue = 0.037", fillcolor="#fefaf8"] ;
641 -> 642 ;
643 [label="mse = 0.0\nsamples = 1\nvalue = 0.028", fillcolor="#fefbf9"] ;
641 -> 643 ;
644 [label="X[23] <= 0.516\nmse = 0.0\nsamples = 4\nvalue = 0.037", fillcolor="#fefaf8"] ;
636 -> 644 ;
645 [label="mse = 0.0\nsamples = 1\nvalue = 0.037", fillcolor="#fefaf8"] ;
644 -> 645 ;
646 [label="mse = 0.0\nsamples = 3\nvalue = 0.037", fillcolor="#fefaf8"] ;
644 -> 646 ;
647 [label="mse = -0.0\nsamples = 1\nvalue = 0.028", fillcolor="#fefbf9"] ;
635 -> 647 ;
648 [label="mse = 0.0\nsamples = 1\nvalue = 0.028", fillcolor="#fefbf9"] ;
634 -> 648 ;
649 [label="mse = -0.0\nsamples = 2\nvalue = 0.028", fillcolor="#fefbf9"] ;
633 -> 649 ;
650 [label="X[14] <= 0.655\nmse = 0.0\nsamples = 14\nvalue = 0.036", fillcolor="#fefaf8"] ;
632 -> 650 ;
651 [label="X[12] <= 0.901\nmse = 0.0\nsamples = 12\nvalue = 0.037", fillcolor="#fefaf8"] ;
650 -> 651 ;
652 [label="X[18] <= 0.51\nmse = 0.0\nsamples = 3\nvalue = 0.034", fillcolor="#fefbf8"] ;
651 -> 652 ;
653 [label="mse = 0.0\nsamples = 2\nvalue = 0.037", fillcolor="#fefaf8"] ;
652 -> 653 ;
654 [label="mse = -0.0\nsamples = 1\nvalue = 0.028", fillcolor="#fefbf9"] ;
652 -> 654 ;
655 [label="mse = 0.0\nsamples = 9\nvalue = 0.037", fillcolor="#fefaf8"] ;
651 -> 655 ;
656 [label="X[21] <= 0.933\nmse = 0.0\nsamples = 2\nvalue = 0.033", fillcolor="#fefbf9"] ;
650 -> 656 ;
657 [label="mse = 0.0\nsamples = 1\nvalue = 0.037", fillcolor="#fefaf8"] ;
656 -> 657 ;
658 [label="mse = 0.0\nsamples = 1\nvalue = 0.028", fillcolor="#fefbf9"] ;
656 -> 658 ;
659 [label="X[2] <= 0.313\nmse = 0.0\nsamples = 11\nvalue = 0.03", fillcolor="#fefbf9"] ;
621 -> 659 ;
660 [label="X[17] <= 0.291\nmse = 0.0\nsamples = 2\nvalue = 0.014", fillcolor="#fffdfc"] ;
659 -> 660 ;
661 [label="mse = 0.0\nsamples = 1\nvalue = 0.019", fillcolor="#fffdfb"] ;
660 -> 661 ;
662 [label="mse = 0.0\nsamples = 1\nvalue = 0.009", fillcolor="#fffefd"] ;
660 -> 662 ;
663 [label="X[6] <= 0.626\nmse = 0.0\nsamples = 9\nvalue = 0.033", fillcolor="#fefbf8"] ;
659 -> 663 ;
664 [label="X[20] <= 0.629\nmse = 0.0\nsamples = 7\nvalue = 0.036", fillcolor="#fefaf8"] ;
663 -> 664 ;
665 [label="X[11] <= 0.374\nmse = 0.0\nsamples = 6\nvalue = 0.034", fillcolor="#fefbf8"] ;
664 -> 665 ;
666 [label="mse = 0.0\nsamples = 3\nvalue = 0.037", fillcolor="#fefaf8"] ;
665 -> 666 ;
667 [label="X[4] <= 0.667\nmse = 0.0\nsamples = 3\nvalue = 0.031", fillcolor="#fefbf9"] ;
665 -> 667 ;
668 [label="mse = 0.0\nsamples = 2\nvalue = 0.028", fillcolor="#fefbf9"] ;
667 -> 668 ;
669 [label="mse = 0.0\nsamples = 1\nvalue = 0.037", fillcolor="#fefaf8"] ;
667 -> 669 ;
670 [label="mse = -0.0\nsamples = 1\nvalue = 0.047", fillcolor="#fef9f6"] ;
664 -> 670 ;
671 [label="X[10] <= 0.367\nmse = 0.0\nsamples = 2\nvalue = 0.023", fillcolor="#fefcfa"] ;
663 -> 671 ;
672 [label="mse = 0.0\nsamples = 1\nvalue = 0.019", fillcolor="#fffdfb"] ;
671 -> 672 ;
673 [label="mse = -0.0\nsamples = 1\nvalue = 0.028", fillcolor="#fefbf9"] ;
671 -> 673 ;
674 [label="X[19] <= 0.492\nmse = 0.0\nsamples = 9\nvalue = 0.024", fillcolor="#fefcfa"] ;
412 -> 674 ;
675 [label="X[20] <= 0.629\nmse = 0.0\nsamples = 4\nvalue = 0.012", fillcolor="#fffefd"] ;
674 -> 675 ;
676 [label="mse = -0.0\nsamples = 3\nvalue = 0.009", fillcolor="#fffefd"] ;
675 -> 676 ;
677 [label="mse = 0.0\nsamples = 1\nvalue = 0.019", fillcolor="#fffdfb"] ;
675 -> 677 ;
678 [label="X[22] <= 0.636\nmse = 0.0\nsamples = 5\nvalue = 0.034", fillcolor="#fefbf8"] ;
674 -> 678 ;
679 [label="X[23] <= 0.702\nmse = 0.0\nsamples = 3\nvalue = 0.031", fillcolor="#fefbf9"] ;
678 -> 679 ;
680 [label="mse = 0.0\nsamples = 1\nvalue = 0.037", fillcolor="#fefaf8"] ;
679 -> 680 ;
681 [label="mse = 0.0\nsamples = 2\nvalue = 0.028", fillcolor="#fefbf9"] ;
679 -> 681 ;
682 [label="X[7] <= 0.549\nmse = 0.0\nsamples = 2\nvalue = 0.037", fillcolor="#fefaf8"] ;
678 -> 682 ;
683 [label="mse = 0.0\nsamples = 1\nvalue = 0.037", fillcolor="#fefaf8"] ;
682 -> 683 ;
684 [label="mse = 0.0\nsamples = 1\nvalue = 0.037", fillcolor="#fefaf8"] ;
682 -> 684 ;
685 [label="X[21] <= 0.887\nmse = 0.0\nsamples = 36\nvalue = 0.035", fillcolor="#fefbf8"] ;
411 -> 685 ;
686 [label="X[20] <= 0.246\nmse = 0.0\nsamples = 11\nvalue = 0.038", fillcolor="#fefaf7"] ;
685 -> 686 ;
687 [label="mse = 0.0\nsamples = 1\nvalue = 0.047", fillcolor="#fef9f6"] ;
686 -> 687 ;
688 [label="X[16] <= 0.723\nmse = 0.0\nsamples = 10\nvalue = 0.037", fillcolor="#fefaf8"] ;
686 -> 688 ;
689 [label="mse = 0.0\nsamples = 3\nvalue = 0.037", fillcolor="#fefaf8"] ;
688 -> 689 ;
690 [label="X[11] <= 0.303\nmse = 0.0\nsamples = 7\nvalue = 0.037", fillcolor="#fefaf8"] ;
688 -> 690 ;
691 [label="mse = 0.0\nsamples = 2\nvalue = 0.037", fillcolor="#fefaf8"] ;
690 -> 691 ;
692 [label="mse = -0.0\nsamples = 5\nvalue = 0.037", fillcolor="#fefaf8"] ;
690 -> 692 ;
693 [label="X[20] <= 0.61\nmse = 0.0\nsamples = 25\nvalue = 0.034", fillcolor="#fefbf8"] ;
685 -> 693 ;
694 [label="X[8] <= 0.798\nmse = 0.0\nsamples = 24\nvalue = 0.033", fillcolor="#fefbf8"] ;
693 -> 694 ;
695 [label="X[9] <= 0.29\nmse = 0.0\nsamples = 20\nvalue = 0.034", fillcolor="#fefbf8"] ;
694 -> 695 ;
696 [label="X[23] <= 0.399\nmse = 0.0\nsamples = 11\nvalue = 0.032", fillcolor="#fefbf9"] ;
695 -> 696 ;
697 [label="X[13] <= 0.276\nmse = 0.0\nsamples = 4\nvalue = 0.035", fillcolor="#fefbf8"] ;
696 -> 697 ;
698 [label="mse = 0.0\nsamples = 2\nvalue = 0.037", fillcolor="#fefaf8"] ;
697 -> 698 ;
699 [label="X[11] <= 0.231\nmse = 0.0\nsamples = 2\nvalue = 0.033", fillcolor="#fefbf9"] ;
697 -> 699 ;
700 [label="mse = 0.0\nsamples = 1\nvalue = 0.037", fillcolor="#fefaf8"] ;
699 -> 700 ;
701 [label="mse = 0.0\nsamples = 1\nvalue = 0.028", fillcolor="#fefbf9"] ;
699 -> 701 ;
702 [label="X[6] <= 0.62\nmse = 0.0\nsamples = 7\nvalue = 0.031", fillcolor="#fefbf9"] ;
696 -> 702 ;
703 [label="X[9] <= 0.286\nmse = 0.0\nsamples = 6\nvalue = 0.03", fillcolor="#fefbf9"] ;
702 -> 703 ;
704 [label="mse = 0.0\nsamples = 4\nvalue = 0.028", fillcolor="#fefbf9"] ;
703 -> 704 ;
705 [label="X[1] <= 0.513\nmse = 0.0\nsamples = 2\nvalue = 0.033", fillcolor="#fefbf9"] ;
703 -> 705 ;
706 [label="mse = 0.0\nsamples = 1\nvalue = 0.037", fillcolor="#fefaf8"] ;
705 -> 706 ;
707 [label="mse = 0.0\nsamples = 1\nvalue = 0.028", fillcolor="#fefbf9"] ;
705 -> 707 ;
708 [label="mse = 0.0\nsamples = 1\nvalue = 0.037", fillcolor="#fefaf8"] ;
702 -> 708 ;
709 [label="X[10] <= 0.396\nmse = 0.0\nsamples = 9\nvalue = 0.036", fillcolor="#fefaf8"] ;
695 -> 709 ;
710 [label="mse = 0.0\nsamples = 7\nvalue = 0.037", fillcolor="#fefaf8"] ;
709 -> 710 ;
711 [label="X[12] <= 0.751\nmse = 0.0\nsamples = 2\nvalue = 0.033", fillcolor="#fefbf9"] ;
709 -> 711 ;
712 [label="mse = 0.0\nsamples = 1\nvalue = 0.028", fillcolor="#fefbf9"] ;
711 -> 712 ;
713 [label="mse = 0.0\nsamples = 1\nvalue = 0.037", fillcolor="#fefaf8"] ;
711 -> 713 ;
714 [label="X[4] <= 0.676\nmse = 0.0\nsamples = 4\nvalue = 0.028", fillcolor="#fefbf9"] ;
694 -> 714 ;
715 [label="mse = 0.0\nsamples = 2\nvalue = 0.028", fillcolor="#fefbf9"] ;
714 -> 715 ;
716 [label="mse = 0.0\nsamples = 2\nvalue = 0.028", fillcolor="#fefbf9"] ;
714 -> 716 ;
717 [label="mse = -0.0\nsamples = 1\nvalue = 0.047", fillcolor="#fef9f6"] ;
693 -> 717 ;
718 [label="X[19] <= 0.318\nmse = 0.0\nsamples = 7\nvalue = 0.023", fillcolor="#fefcfb"] ;
410 -> 718 ;
719 [label="X[5] <= 0.253\nmse = 0.0\nsamples = 4\nvalue = 0.016", fillcolor="#fffdfc"] ;
718 -> 719 ;
720 [label="mse = 0.0\nsamples = 3\nvalue = 0.019", fillcolor="#fffdfb"] ;
719 -> 720 ;
721 [label="mse = 0.0\nsamples = 1\nvalue = 0.009", fillcolor="#fffefd"] ;
719 -> 721 ;
722 [label="X[20] <= 0.217\nmse = 0.0\nsamples = 3\nvalue = 0.031", fillcolor="#fefbf9"] ;
718 -> 722 ;
723 [label="mse = 0.0\nsamples = 1\nvalue = 0.037", fillcolor="#fefaf8"] ;
722 -> 723 ;
724 [label="mse = 0.0\nsamples = 2\nvalue = 0.028", fillcolor="#fefbf9"] ;
722 -> 724 ;
725 [label="X[6] <= 0.291\nmse = 0.0\nsamples = 884\nvalue = 0.034", fillcolor="#fefbf8"] ;
5 -> 725 ;
726 [label="X[23] <= 0.362\nmse = 0.0\nsamples = 7\nvalue = 0.063", fillcolor="#fdf7f3"] ;
725 -> 726 ;
727 [label="X[12] <= 0.529\nmse = 0.0\nsamples = 6\nvalue = 0.055", fillcolor="#fef8f4"] ;
726 -> 727 ;
728 [label="X[6] <= 0.274\nmse = 0.0\nsamples = 5\nvalue = 0.052", fillcolor="#fef8f5"] ;
727 -> 728 ;
729 [label="X[6] <= 0.261\nmse = 0.0\nsamples = 3\nvalue = 0.05", fillcolor="#fef9f5"] ;
728 -> 729 ;
730 [label="mse = 0.0\nsamples = 1\nvalue = 0.056", fillcolor="#fef8f4"] ;
729 -> 730 ;
731 [label="mse = -0.0\nsamples = 2\nvalue = 0.047", fillcolor="#fef9f6"] ;
729 -> 731 ;
732 [label="mse = 0.0\nsamples = 2\nvalue = 0.056", fillcolor="#fef8f4"] ;
728 -> 732 ;
733 [label="mse = 0.0\nsamples = 1\nvalue = 0.065", fillcolor="#fdf7f2"] ;
727 -> 733 ;
734 [label="mse = -0.0\nsamples = 1\nvalue = 0.112", fillcolor="#fcf1e9"] ;
726 -> 734 ;
735 [label="X[19] <= 0.008\nmse = 0.0\nsamples = 877\nvalue = 0.034", fillcolor="#fefbf8"] ;
725 -> 735 ;
736 [label="mse = 0.0\nsamples = 1\nvalue = 0.084", fillcolor="#fdf4ee"] ;
735 -> 736 ;
737 [label="X[25] <= 0.917\nmse = 0.0\nsamples = 876\nvalue = 0.034", fillcolor="#fefbf8"] ;
735 -> 737 ;
738 [label="X[9] <= 0.336\nmse = 0.0\nsamples = 715\nvalue = 0.033", fillcolor="#fefbf8"] ;
737 -> 738 ;
739 [label="X[12] <= 0.592\nmse = 0.0\nsamples = 702\nvalue = 0.034", fillcolor="#fefbf8"] ;
738 -> 739 ;
740 [label="X[19] <= 0.209\nmse = 0.0\nsamples = 88\nvalue = 0.037", fillcolor="#fefaf8"] ;
739 -> 740 ;
741 [label="X[24] <= 0.07\nmse = 0.0\nsamples = 34\nvalue = 0.034", fillcolor="#fefbf8"] ;
740 -> 741 ;
742 [label="X[15] <= 0.442\nmse = 0.0\nsamples = 5\nvalue = 0.024", fillcolor="#fefcfa"] ;
741 -> 742 ;
743 [label="X[9] <= 0.255\nmse = 0.0\nsamples = 3\nvalue = 0.022", fillcolor="#fefcfb"] ;
742 -> 743 ;
744 [label="X[3] <= 0.126\nmse = 0.0\nsamples = 2\nvalue = 0.023", fillcolor="#fefcfa"] ;
743 -> 744 ;
745 [label="mse = 0.0\nsamples = 1\nvalue = 0.019", fillcolor="#fffdfb"] ;
744 -> 745 ;
746 [label="mse = -0.0\nsamples = 1\nvalue = 0.028", fillcolor="#fefbf9"] ;
744 -> 746 ;
747 [label="mse = -0.0\nsamples = 1\nvalue = 0.019", fillcolor="#fffdfb"] ;
743 -> 747 ;
748 [label="mse = 0.0\nsamples = 2\nvalue = 0.028", fillcolor="#fefbf9"] ;
742 -> 748 ;
749 [label="X[11] <= 0.21\nmse = 0.0\nsamples = 29\nvalue = 0.035", fillcolor="#fefbf8"] ;
741 -> 749 ;
750 [label="X[21] <= 0.837\nmse = 0.0\nsamples = 22\nvalue = 0.037", fillcolor="#fefaf8"] ;
749 -> 750 ;
751 [label="X[2] <= 0.254\nmse = 0.0\nsamples = 20\nvalue = 0.038", fillcolor="#fefaf7"] ;
750 -> 751 ;
752 [label="X[20] <= 0.738\nmse = 0.0\nsamples = 8\nvalue = 0.041", fillcolor="#fefaf7"] ;
751 -> 752 ;
753 [label="X[3] <= 0.115\nmse = 0.0\nsamples = 4\nvalue = 0.037", fillcolor="#fefaf8"] ;
752 -> 753 ;
754 [label="mse = 0.0\nsamples = 1\nvalue = 0.028", fillcolor="#fefbf9"] ;
753 -> 754 ;
755 [label="X[23] <= 0.169\nmse = 0.0\nsamples = 3\nvalue = 0.04", fillcolor="#fefaf7"] ;
753 -> 755 ;
756 [label="mse = 0.0\nsamples = 2\nvalue = 0.037", fillcolor="#fefaf8"] ;
755 -> 756 ;
757 [label="mse = -0.0\nsamples = 1\nvalue = 0.047", fillcolor="#fef9f6"] ;
755 -> 757 ;
758 [label="X[12] <= 0.582\nmse = 0.0\nsamples = 4\nvalue = 0.044", fillcolor="#fef9f6"] ;
752 -> 758 ;
759 [label="mse = -0.0\nsamples = 3\nvalue = 0.047", fillcolor="#fef9f6"] ;
758 -> 759 ;
760 [label="mse = 0.0\nsamples = 1\nvalue = 0.037", fillcolor="#fefaf8"] ;
758 -> 760 ;
761 [label="X[8] <= 0.231\nmse = 0.0\nsamples = 12\nvalue = 0.037", fillcolor="#fefaf8"] ;
751 -> 761 ;
762 [label="X[17] <= 0.485\nmse = 0.0\nsamples = 11\nvalue = 0.037", fillcolor="#fefaf8"] ;
761 -> 762 ;
763 [label="X[2] <= 0.257\nmse = 0.0\nsamples = 3\nvalue = 0.04", fillcolor="#fefaf7"] ;
762 -> 763 ;
764 [label="mse = 0.0\nsamples = 2\nvalue = 0.037", fillcolor="#fefaf8"] ;
763 -> 764 ;
765 [label="mse = -0.0\nsamples = 1\nvalue = 0.047", fillcolor="#fef9f6"] ;
763 -> 765 ;
766 [label="X[2] <= 0.258\nmse = 0.0\nsamples = 8\nvalue = 0.036", fillcolor="#fefaf8"] ;
762 -> 766 ;
767 [label="mse = 0.0\nsamples = 7\nvalue = 0.037", fillcolor="#fefaf8"] ;
766 -> 767 ;
768 [label="mse = -0.0\nsamples = 1\nvalue = 0.028", fillcolor="#fefbf9"] ;
766 -> 768 ;
769 [label="mse = -0.0\nsamples = 1\nvalue = 0.028", fillcolor="#fefbf9"] ;
761 -> 769 ;
770 [label="X[12] <= 0.551\nmse = 0.0\nsamples = 2\nvalue = 0.028", fillcolor="#fefbf9"] ;
750 -> 770 ;
771 [label="mse = 0.0\nsamples = 1\nvalue = 0.028", fillcolor="#fefbf9"] ;
770 -> 771 ;
772 [label="mse = 0.0\nsamples = 1\nvalue = 0.028", fillcolor="#fefbf9"] ;
770 -> 772 ;
773 [label="X[18] <= 0.404\nmse = 0.0\nsamples = 7\nvalue = 0.028", fillcolor="#fefbf9"] ;
749 -> 773 ;
774 [label="mse = 0.0\nsamples = 3\nvalue = 0.037", fillcolor="#fefaf8"] ;
773 -> 774 ;
775 [label="X[24] <= 0.136\nmse = 0.0\nsamples = 4\nvalue = 0.021", fillcolor="#fefcfb"] ;
773 -> 775 ;
776 [label="mse = -0.0\nsamples = 3\nvalue = 0.019", fillcolor="#fffdfb"] ;
775 -> 776 ;
777 [label="mse = -0.0\nsamples = 1\nvalue = 0.028", fillcolor="#fefbf9"] ;
775 -> 777 ;
778 [label="X[10] <= 0.634\nmse = 0.0\nsamples = 54\nvalue = 0.039", fillcolor="#fefaf7"] ;
740 -> 778 ;
779 [label="X[18] <= 0.367\nmse = 0.0\nsamples = 52\nvalue = 0.039", fillcolor="#fefaf7"] ;
778 -> 779 ;
780 [label="X[23] <= 0.32\nmse = 0.0\nsamples = 13\nvalue = 0.042", fillcolor="#fefaf7"] ;
779 -> 780 ;
781 [label="X[23] <= 0.316\nmse = 0.0\nsamples = 9\nvalue = 0.044", fillcolor="#fefaf6"] ;
780 -> 781 ;
782 [label="X[4] <= 0.442\nmse = 0.0\nsamples = 8\nvalue = 0.042", fillcolor="#fefaf7"] ;
781 -> 782 ;
783 [label="mse = 0.0\nsamples = 2\nvalue = 0.037", fillcolor="#fefaf8"] ;
782 -> 783 ;
784 [label="X[21] <= 0.74\nmse = 0.0\nsamples = 6\nvalue = 0.044", fillcolor="#fefaf6"] ;
782 -> 784 ;
785 [label="X[12] <= 0.355\nmse = 0.0\nsamples = 5\nvalue = 0.045", fillcolor="#fef9f6"] ;
784 -> 785 ;
786 [label="mse = -0.0\nsamples = 4\nvalue = 0.047", fillcolor="#fef9f6"] ;
785 -> 786 ;
787 [label="mse = 0.0\nsamples = 1\nvalue = 0.037", fillcolor="#fefaf8"] ;
785 -> 787 ;
788 [label="mse = 0.0\nsamples = 1\nvalue = 0.037", fillcolor="#fefaf8"] ;
784 -> 788 ;
789 [label="mse = -0.0\nsamples = 1\nvalue = 0.056", fillcolor="#fef8f4"] ;
781 -> 789 ;
790 [label="X[3] <= 0.113\nmse = 0.0\nsamples = 4\nvalue = 0.037", fillcolor="#fefaf8"] ;
780 -> 790 ;
791 [label="mse = 0.0\nsamples = 2\nvalue = 0.037", fillcolor="#fefaf8"] ;
790 -> 791 ;
792 [label="mse = 0.0\nsamples = 2\nvalue = 0.037", fillcolor="#fefaf8"] ;
790 -> 792 ;
793 [label="X[12] <= 0.355\nmse = 0.0\nsamples = 39\nvalue = 0.038", fillcolor="#fefaf8"] ;
779 -> 793 ;
794 [label="X[21] <= 0.645\nmse = 0.0\nsamples = 5\nvalue = 0.032", fillcolor="#fefbf9"] ;
793 -> 794 ;
795 [label="mse = 0.0\nsamples = 2\nvalue = 0.037", fillcolor="#fefaf8"] ;
794 -> 795 ;
796 [label="mse = 0.0\nsamples = 3\nvalue = 0.028", fillcolor="#fefbf9"] ;
794 -> 796 ;
797 [label="X[6] <= 0.365\nmse = 0.0\nsamples = 34\nvalue = 0.039", fillcolor="#fefaf7"] ;
793 -> 797 ;
798 [label="X[24] <= 0.241\nmse = 0.0\nsamples = 22\nvalue = 0.04", fillcolor="#fefaf7"] ;
797 -> 798 ;
799 [label="X[7] <= 0.527\nmse = 0.0\nsamples = 18\nvalue = 0.039", fillcolor="#fefaf7"] ;
798 -> 799 ;
800 [label="X[3] <= 0.081\nmse = 0.0\nsamples = 15\nvalue = 0.038", fillcolor="#fefaf7"] ;
799 -> 800 ;
801 [label="X[20] <= 0.583\nmse = 0.0\nsamples = 2\nvalue = 0.042", fillcolor="#fefaf7"] ;
800 -> 801 ;
802 [label="mse = 0.0\nsamples = 1\nvalue = 0.037", fillcolor="#fefaf8"] ;
801 -> 802 ;
803 [label="mse = -0.0\nsamples = 1\nvalue = 0.047", fillcolor="#fef9f6"] ;
801 -> 803 ;
804 [label="mse = 0.0\nsamples = 13\nvalue = 0.037", fillcolor="#fefaf8"] ;
800 -> 804 ;
805 [label="X[17] <= 0.485\nmse = 0.0\nsamples = 3\nvalue = 0.044", fillcolor="#fefaf6"] ;
799 -> 805 ;
806 [label="mse = 0.0\nsamples = 1\nvalue = 0.037", fillcolor="#fefaf8"] ;
805 -> 806 ;
807 [label="mse = -0.0\nsamples = 2\nvalue = 0.047", fillcolor="#fef9f6"] ;
805 -> 807 ;
808 [label="X[13] <= 0.392\nmse = 0.0\nsamples = 4\nvalue = 0.044", fillcolor="#fef9f6"] ;
798 -> 808 ;
809 [label="mse = -0.0\nsamples = 3\nvalue = 0.047", fillcolor="#fef9f6"] ;
808 -> 809 ;
810 [label="mse = 0.0\nsamples = 1\nvalue = 0.037", fillcolor="#fefaf8"] ;
808 -> 810 ;
811 [label="X[21] <= 0.791\nmse = 0.0\nsamples = 12\nvalue = 0.037", fillcolor="#fefaf8"] ;
797 -> 811 ;
812 [label="mse = 0.0\nsamples = 1\nvalue = 0.028", fillcolor="#fefbf9"] ;
811 -> 812 ;
813 [label="mse = 0.0\nsamples = 11\nvalue = 0.037", fillcolor="#fefaf8"] ;
811 -> 813 ;
814 [label="X[19] <= 0.216\nmse = 0.0\nsamples = 2\nvalue = 0.051", fillcolor="#fef9f5"] ;
778 -> 814 ;
815 [label="mse = 0.0\nsamples = 1\nvalue = 0.056", fillcolor="#fef8f4"] ;
814 -> 815 ;
816 [label="mse = -0.0\nsamples = 1\nvalue = 0.047", fillcolor="#fef9f6"] ;
814 -> 816 ;
817 [label="X[8] <= 0.488\nmse = 0.0\nsamples = 614\nvalue = 0.033", fillcolor="#fefbf8"] ;
739 -> 817 ;
818 [label="X[12] <= 0.6\nmse = 0.0\nsamples = 472\nvalue = 0.032", fillcolor="#fefbf9"] ;
817 -> 818 ;
819 [label="X[20] <= 0.862\nmse = 0.0\nsamples = 4\nvalue = 0.014", fillcolor="#fffdfc"] ;
818 -> 819 ;
820 [label="mse = 0.0\nsamples = 2\nvalue = 0.009", fillcolor="#fffefd"] ;
819 -> 820 ;
821 [label="mse = -0.0\nsamples = 2\nvalue = 0.019", fillcolor="#fffdfb"] ;
819 -> 821 ;
822 [label="X[16] <= 0.601\nmse = 0.0\nsamples = 468\nvalue = 0.032", fillcolor="#fefbf9"] ;
818 -> 822 ;
823 [label="X[23] <= 0.104\nmse = 0.0\nsamples = 443\nvalue = 0.033", fillcolor="#fefbf9"] ;
822 -> 823 ;
824 [label="X[12] <= 0.786\nmse = 0.0\nsamples = 25\nvalue = 0.041", fillcolor="#fefaf7"] ;
823 -> 824 ;
825 [label="X[22] <= 0.086\nmse = 0.0\nsamples = 3\nvalue = 0.028", fillcolor="#fefbf9"] ;
824 -> 825 ;
826 [label="mse = 0.0\nsamples = 1\nvalue = 0.019", fillcolor="#fffdfb"] ;
825 -> 826 ;
827 [label="X[2] <= 0.228\nmse = 0.0\nsamples = 2\nvalue = 0.033", fillcolor="#fefbf9"] ;
825 -> 827 ;
828 [label="mse = 0.0\nsamples = 1\nvalue = 0.028", fillcolor="#fefbf9"] ;
827 -> 828 ;
829 [label="mse = 0.0\nsamples = 1\nvalue = 0.037", fillcolor="#fefaf8"] ;
827 -> 829 ;
830 [label="X[2] <= 0.233\nmse = 0.0\nsamples = 22\nvalue = 0.043", fillcolor="#fefaf6"] ;
824 -> 830 ;
831 [label="X[2] <= 0.224\nmse = 0.0\nsamples = 16\nvalue = 0.046", fillcolor="#fef9f6"] ;
830 -> 831 ;
832 [label="mse = 0.0\nsamples = 2\nvalue = 0.056", fillcolor="#fef8f4"] ;
831 -> 832 ;
833 [label="X[22] <= 0.13\nmse = 0.0\nsamples = 14\nvalue = 0.045", fillcolor="#fef9f6"] ;
831 -> 833 ;
834 [label="X[19] <= 0.064\nmse = 0.0\nsamples = 3\nvalue = 0.037", fillcolor="#fefaf8"] ;
833 -> 834 ;
835 [label="X[20] <= 0.835\nmse = 0.0\nsamples = 2\nvalue = 0.042", fillcolor="#fefaf7"] ;
834 -> 835 ;
836 [label="mse = 0.0\nsamples = 1\nvalue = 0.037", fillcolor="#fefaf8"] ;
835 -> 836 ;
837 [label="mse = -0.0\nsamples = 1\nvalue = 0.047", fillcolor="#fef9f6"] ;
835 -> 837 ;
838 [label="mse = -0.0\nsamples = 1\nvalue = 0.028", fillcolor="#fefbf9"] ;
834 -> 838 ;
839 [label="X[11] <= 0.069\nmse = 0.0\nsamples = 11\nvalue = 0.047", fillcolor="#fef9f6"] ;
833 -> 839 ;
840 [label="X[2] <= 0.231\nmse = 0.0\nsamples = 10\nvalue = 0.046", fillcolor="#fef9f6"] ;
839 -> 840 ;
841 [label="X[12] <= 0.798\nmse = 0.0\nsamples = 9\nvalue = 0.045", fillcolor="#fef9f6"] ;
840 -> 841 ;
842 [label="X[12] <= 0.792\nmse = 0.0\nsamples = 8\nvalue = 0.046", fillcolor="#fef9f6"] ;
841 -> 842 ;
843 [label="X[23] <= 0.064\nmse = 0.0\nsamples = 5\nvalue = 0.047", fillcolor="#fef9f6"] ;
842 -> 843 ;
844 [label="mse = 0.0\nsamples = 2\nvalue = 0.047", fillcolor="#fef9f6"] ;
843 -> 844 ;
845 [label="mse = -0.0\nsamples = 3\nvalue = 0.047", fillcolor="#fef9f6"] ;
843 -> 845 ;
846 [label="X[19] <= 0.064\nmse = 0.0\nsamples = 3\nvalue = 0.044", fillcolor="#fefaf6"] ;
842 -> 846 ;
847 [label="mse = 0.0\nsamples = 1\nvalue = 0.037", fillcolor="#fefaf8"] ;
846 -> 847 ;
848 [label="mse = -0.0\nsamples = 2\nvalue = 0.047", fillcolor="#fef9f6"] ;
846 -> 848 ;
849 [label="mse = 0.0\nsamples = 1\nvalue = 0.037", fillcolor="#fefaf8"] ;
841 -> 849 ;
850 [label="mse = -0.0\nsamples = 1\nvalue = 0.056", fillcolor="#fef8f4"] ;
840 -> 850 ;
851 [label="mse = -0.0\nsamples = 1\nvalue = 0.056", fillcolor="#fef8f4"] ;
839 -> 851 ;
852 [label="X[16] <= 0.599\nmse = 0.0\nsamples = 6\nvalue = 0.036", fillcolor="#fefaf8"] ;
830 -> 852 ;
853 [label="mse = 0.0\nsamples = 4\nvalue = 0.028", fillcolor="#fefbf9"] ;
852 -> 853 ;
854 [label="X[19] <= 0.015\nmse = 0.0\nsamples = 2\nvalue = 0.051", fillcolor="#fef9f5"] ;
852 -> 854 ;
855 [label="mse = 0.0\nsamples = 1\nvalue = 0.065", fillcolor="#fdf7f2"] ;
854 -> 855 ;
856 [label="mse = 0.0\nsamples = 1\nvalue = 0.037", fillcolor="#fefaf8"] ;
854 -> 856 ;
857 [label="X[6] <= 0.329\nmse = 0.0\nsamples = 418\nvalue = 0.032", fillcolor="#fefbf9"] ;
823 -> 857 ;
858 [label="X[23] <= 0.297\nmse = 0.0\nsamples = 26\nvalue = 0.027", fillcolor="#fefcfa"] ;
857 -> 858 ;
859 [label="X[11] <= 0.078\nmse = 0.0\nsamples = 20\nvalue = 0.023", fillcolor="#fefcfa"] ;
858 -> 859 ;
860 [label="X[6] <= 0.313\nmse = 0.0\nsamples = 7\nvalue = 0.029", fillcolor="#fefbf9"] ;
859 -> 860 ;
861 [label="mse = 0.0\nsamples = 2\nvalue = 0.037", fillcolor="#fefaf8"] ;
860 -> 861 ;
862 [label="X[20] <= 0.772\nmse = 0.0\nsamples = 5\nvalue = 0.026", fillcolor="#fefcfa"] ;
860 -> 862 ;
863 [label="mse = 0.0\nsamples = 1\nvalue = 0.019", fillcolor="#fffdfb"] ;
862 -> 863 ;
864 [label="mse = 0.0\nsamples = 4\nvalue = 0.028", fillcolor="#fefbf9"] ;
862 -> 864 ;
865 [label="X[11] <= 0.081\nmse = 0.0\nsamples = 13\nvalue = 0.02", fillcolor="#fefcfb"] ;
859 -> 865 ;
866 [label="X[11] <= 0.08\nmse = 0.0\nsamples = 4\nvalue = 0.012", fillcolor="#fffefd"] ;
865 -> 866 ;
867 [label="mse = 0.0\nsamples = 1\nvalue = 0.019", fillcolor="#fffdfb"] ;
866 -> 867 ;
868 [label="mse = -0.0\nsamples = 3\nvalue = 0.009", fillcolor="#fffefd"] ;
866 -> 868 ;
869 [label="X[16] <= 0.38\nmse = 0.0\nsamples = 9\nvalue = 0.024", fillcolor="#fefcfa"] ;
865 -> 869 ;
870 [label="X[24] <= 0.168\nmse = 0.0\nsamples = 3\nvalue = 0.034", fillcolor="#fefbf8"] ;
869 -> 870 ;
871 [label="mse = 0.0\nsamples = 2\nvalue = 0.037", fillcolor="#fefaf8"] ;
870 -> 871 ;
872 [label="mse = 0.0\nsamples = 1\nvalue = 0.028", fillcolor="#fefbf9"] ;
870 -> 872 ;
873 [label="X[23] <= 0.156\nmse = 0.0\nsamples = 6\nvalue = 0.019", fillcolor="#fffdfb"] ;
869 -> 873 ;
874 [label="mse = 0.0\nsamples = 1\nvalue = 0.028", fillcolor="#fefbf9"] ;
873 -> 874 ;
875 [label="X[19] <= 0.197\nmse = 0.0\nsamples = 5\nvalue = 0.017", fillcolor="#fffdfc"] ;
873 -> 875 ;
876 [label="mse = 0.0\nsamples = 4\nvalue = 0.019", fillcolor="#fffdfb"] ;
875 -> 876 ;
877 [label="mse = 0.0\nsamples = 1\nvalue = 0.009", fillcolor="#fffefd"] ;
875 -> 877 ;
878 [label="X[7] <= 0.62\nmse = 0.0\nsamples = 6\nvalue = 0.037", fillcolor="#fefaf8"] ;
858 -> 878 ;
879 [label="X[6] <= 0.318\nmse = 0.0\nsamples = 5\nvalue = 0.039", fillcolor="#fefaf7"] ;
878 -> 879 ;
880 [label="mse = 0.0\nsamples = 2\nvalue = 0.037", fillcolor="#fefaf8"] ;
879 -> 880 ;
881 [label="X[13] <= 0.499\nmse = 0.0\nsamples = 3\nvalue = 0.04", fillcolor="#fefaf7"] ;
879 -> 881 ;
882 [label="mse = 0.0\nsamples = 2\nvalue = 0.037", fillcolor="#fefaf8"] ;
881 -> 882 ;
883 [label="mse = -0.0\nsamples = 1\nvalue = 0.047", fillcolor="#fef9f6"] ;
881 -> 883 ;
884 [label="mse = -0.0\nsamples = 1\nvalue = 0.028", fillcolor="#fefbf9"] ;
878 -> 884 ;
885 [label="X[7] <= 0.273\nmse = 0.0\nsamples = 392\nvalue = 0.032", fillcolor="#fefbf9"] ;
857 -> 885 ;
886 [label="X[20] <= 0.59\nmse = 0.0\nsamples = 6\nvalue = 0.044", fillcolor="#fefaf6"] ;
885 -> 886 ;
887 [label="X[12] <= 0.838\nmse = 0.0\nsamples = 4\nvalue = 0.04", fillcolor="#fefaf7"] ;
886 -> 887 ;
888 [label="mse = 0.0\nsamples = 2\nvalue = 0.037", fillcolor="#fefaf8"] ;
887 -> 888 ;
889 [label="X[21] <= 0.795\nmse = 0.0\nsamples = 2\nvalue = 0.042", fillcolor="#fefaf7"] ;
887 -> 889 ;
890 [label="mse = 0.0\nsamples = 1\nvalue = 0.037", fillcolor="#fefaf8"] ;
889 -> 890 ;
891 [label="mse = -0.0\nsamples = 1\nvalue = 0.047", fillcolor="#fef9f6"] ;
889 -> 891 ;
892 [label="X[4] <= 0.476\nmse = 0.0\nsamples = 2\nvalue = 0.051", fillcolor="#fef9f5"] ;
886 -> 892 ;
893 [label="mse = 0.0\nsamples = 1\nvalue = 0.047", fillcolor="#fef9f6"] ;
892 -> 893 ;
894 [label="mse = -0.0\nsamples = 1\nvalue = 0.056", fillcolor="#fef8f4"] ;
892 -> 894 ;
895 [label="X[19] <= 0.322\nmse = 0.0\nsamples = 386\nvalue = 0.032", fillcolor="#fefbf9"] ;
885 -> 895 ;
896 [label="X[7] <= 0.602\nmse = 0.0\nsamples = 379\nvalue = 0.032", fillcolor="#fefbf9"] ;
895 -> 896 ;
897 [label="X[15] <= 0.633\nmse = 0.0\nsamples = 377\nvalue = 0.032", fillcolor="#fefbf9"] ;
896 -> 897 ;
898 [label="X[1] <= 0.247\nmse = 0.0\nsamples = 375\nvalue = 0.032", fillcolor="#fefbf9"] ;
897 -> 898 ;
899 [label="X[3] <= 0.076\nmse = 0.0\nsamples = 3\nvalue = 0.047", fillcolor="#fef9f6"] ;
898 -> 899 ;
900 [label="X[20] <= 0.753\nmse = 0.0\nsamples = 2\nvalue = 0.051", fillcolor="#fef9f5"] ;
899 -> 900 ;
901 [label="mse = 0.0\nsamples = 1\nvalue = 0.047", fillcolor="#fef9f6"] ;
900 -> 901 ;
902 [label="mse = -0.0\nsamples = 1\nvalue = 0.056", fillcolor="#fef8f4"] ;
900 -> 902 ;
903 [label="mse = 0.0\nsamples = 1\nvalue = 0.037", fillcolor="#fefaf8"] ;
899 -> 903 ;
904 [label="X[18] <= 0.411\nmse = 0.0\nsamples = 372\nvalue = 0.032", fillcolor="#fefbf9"] ;
898 -> 904 ;
905 [label="X[24] <= 0.276\nmse = 0.0\nsamples = 64\nvalue = 0.035", fillcolor="#fefbf8"] ;
904 -> 905 ;
906 [label="X[12] <= 0.82\nmse = 0.0\nsamples = 61\nvalue = 0.036", fillcolor="#fefbf8"] ;
905 -> 906 ;
907 [label="X[5] <= 0.219\nmse = 0.0\nsamples = 55\nvalue = 0.035", fillcolor="#fefbf8"] ;
906 -> 907 ;
908 [label="mse = 0.0\nsamples = 2\nvalue = 0.019", fillcolor="#fffdfb"] ;
907 -> 908 ;
909 [label="X[8] <= 0.371\nmse = 0.0\nsamples = 53\nvalue = 0.035", fillcolor="#fefbf8"] ;
907 -> 909 ;
910 [label="X[1] <= 0.335\nmse = 0.0\nsamples = 45\nvalue = 0.036", fillcolor="#fefaf8"] ;
909 -> 910 ;
911 [label="mse = 0.0\nsamples = 1\nvalue = 0.047", fillcolor="#fef9f6"] ;
910 -> 911 ;
912 [label="X[20] <= 0.922\nmse = 0.0\nsamples = 44\nvalue = 0.036", fillcolor="#fefaf8"] ;
910 -> 912 ;
913 [label="X[20] <= 0.92\nmse = 0.0\nsamples = 42\nvalue = 0.036", fillcolor="#fefbf8"] ;
912 -> 913 ;
914 [label="X[15] <= 0.613\nmse = 0.0\nsamples = 41\nvalue = 0.036", fillcolor="#fefaf8"] ;
913 -> 914 ;
915 [label="X[18] <= 0.409\nmse = 0.0\nsamples = 38\nvalue = 0.035", fillcolor="#fefbf8"] ;
914 -> 915 ;
916 [label="X[10] <= 0.17\nmse = 0.0\nsamples = 32\nvalue = 0.036", fillcolor="#fefaf8"] ;
915 -> 916 ;
917 [label="X[9] <= 0.288\nmse = 0.0\nsamples = 8\nvalue = 0.034", fillcolor="#fefbf8"] ;
916 -> 917 ;
918 [label="mse = 0.0\nsamples = 2\nvalue = 0.028", fillcolor="#fefbf9"] ;
917 -> 918 ;
919 [label="X[15] <= 0.467\nmse = 0.0\nsamples = 6\nvalue = 0.036", fillcolor="#fefaf8"] ;
917 -> 919 ;
920 [label="mse = 0.0\nsamples = 5\nvalue = 0.037", fillcolor="#fefaf8"] ;
919 -> 920 ;
921 [label="mse = -0.0\nsamples = 1\nvalue = 0.028", fillcolor="#fefbf9"] ;
919 -> 921 ;
922 [label="X[24] <= 0.238\nmse = 0.0\nsamples = 24\nvalue = 0.037", fillcolor="#fefaf8"] ;
916 -> 922 ;
923 [label="mse = 0.0\nsamples = 19\nvalue = 0.037", fillcolor="#fefaf8"] ;
922 -> 923 ;
924 [label="X[23] <= 0.346\nmse = 0.0\nsamples = 5\nvalue = 0.036", fillcolor="#fefbf8"] ;
922 -> 924 ;
925 [label="mse = 0.0\nsamples = 1\nvalue = 0.028", fillcolor="#fefbf9"] ;
924 -> 925 ;
926 [label="mse = 0.0\nsamples = 4\nvalue = 0.037", fillcolor="#fefaf8"] ;
924 -> 926 ;
927 [label="X[21] <= 0.85\nmse = 0.0\nsamples = 6\nvalue = 0.031", fillcolor="#fefbf9"] ;
915 -> 927 ;
928 [label="mse = 0.0\nsamples = 3\nvalue = 0.028", fillcolor="#fefbf9"] ;
927 -> 928 ;
929 [label="X[8] <= 0.364\nmse = 0.0\nsamples = 3\nvalue = 0.034", fillcolor="#fefbf8"] ;
927 -> 929 ;
930 [label="mse = 0.0\nsamples = 2\nvalue = 0.037", fillcolor="#fefaf8"] ;
929 -> 930 ;
931 [label="mse = 0.0\nsamples = 1\nvalue = 0.028", fillcolor="#fefbf9"] ;
929 -> 931 ;
932 [label="X[21] <= 0.845\nmse = 0.0\nsamples = 3\nvalue = 0.04", fillcolor="#fefaf7"] ;
914 -> 932 ;
933 [label="mse = 0.0\nsamples = 2\nvalue = 0.037", fillcolor="#fefaf8"] ;
932 -> 933 ;
934 [label="mse = -0.0\nsamples = 1\nvalue = 0.047", fillcolor="#fef9f6"] ;
932 -> 934 ;
935 [label="mse = 0.0\nsamples = 1\nvalue = 0.028", fillcolor="#fefbf9"] ;
913 -> 935 ;
936 [label="X[14] <= 0.367\nmse = 0.0\nsamples = 2\nvalue = 0.042", fillcolor="#fefaf7"] ;
912 -> 936 ;
937 [label="mse = 0.0\nsamples = 1\nvalue = 0.037", fillcolor="#fefaf8"] ;
936 -> 937 ;
938 [label="mse = -0.0\nsamples = 1\nvalue = 0.047", fillcolor="#fef9f6"] ;
936 -> 938 ;
939 [label="X[18] <= 0.388\nmse = 0.0\nsamples = 8\nvalue = 0.032", fillcolor="#fefbf9"] ;
909 -> 939 ;
940 [label="X[9] <= 0.278\nmse = 0.0\nsamples = 5\nvalue = 0.037", fillcolor="#fefaf8"] ;
939 -> 940 ;
941 [label="X[20] <= 0.584\nmse = 0.0\nsamples = 4\nvalue = 0.04", fillcolor="#fefaf7"] ;
940 -> 941 ;
942 [label="mse = 0.0\nsamples = 2\nvalue = 0.037", fillcolor="#fefaf8"] ;
941 -> 942 ;
943 [label="X[11] <= 0.233\nmse = 0.0\nsamples = 2\nvalue = 0.042", fillcolor="#fefaf7"] ;
941 -> 943 ;
944 [label="mse = 0.0\nsamples = 1\nvalue = 0.037", fillcolor="#fefaf8"] ;
943 -> 944 ;
945 [label="mse = -0.0\nsamples = 1\nvalue = 0.047", fillcolor="#fef9f6"] ;
943 -> 945 ;
946 [label="mse = -0.0\nsamples = 1\nvalue = 0.028", fillcolor="#fefbf9"] ;
940 -> 946 ;
947 [label="X[23] <= 0.379\nmse = 0.0\nsamples = 3\nvalue = 0.022", fillcolor="#fefcfb"] ;
939 -> 947 ;
948 [label="mse = -0.0\nsamples = 2\nvalue = 0.019", fillcolor="#fffdfb"] ;
947 -> 948 ;
949 [label="mse = 0.0\nsamples = 1\nvalue = 0.028", fillcolor="#fefbf9"] ;
947 -> 949 ;
950 [label="X[6] <= 0.394\nmse = 0.0\nsamples = 6\nvalue = 0.044", fillcolor="#fefaf6"] ;
906 -> 950 ;
951 [label="mse = 0.0\nsamples = 3\nvalue = 0.047", fillcolor="#fef9f6"] ;
950 -> 951 ;
952 [label="X[21] <= 0.859\nmse = 0.0\nsamples = 3\nvalue = 0.04", fillcolor="#fefaf7"] ;
950 -> 952 ;
953 [label="mse = 0.0\nsamples = 2\nvalue = 0.037", fillcolor="#fefaf8"] ;
952 -> 953 ;
954 [label="mse = -0.0\nsamples = 1\nvalue = 0.047", fillcolor="#fef9f6"] ;
952 -> 954 ;
955 [label="X[11] <= 0.147\nmse = 0.0\nsamples = 3\nvalue = 0.022", fillcolor="#fefcfb"] ;
905 -> 955 ;
956 [label="mse = -0.0\nsamples = 2\nvalue = 0.019", fillcolor="#fffdfb"] ;
955 -> 956 ;
957 [label="mse = 0.0\nsamples = 1\nvalue = 0.028", fillcolor="#fefbf9"] ;
955 -> 957 ;
958 [label="X[16] <= 0.395\nmse = 0.0\nsamples = 308\nvalue = 0.032", fillcolor="#fefbf9"] ;
904 -> 958 ;
959 [label="X[9] <= 0.294\nmse = 0.0\nsamples = 4\nvalue = 0.014", fillcolor="#fffdfc"] ;
958 -> 959 ;
960 [label="mse = 0.0\nsamples = 1\nvalue = 0.009", fillcolor="#fffefd"] ;
959 -> 960 ;
961 [label="X[15] <= 0.603\nmse = 0.0\nsamples = 3\nvalue = 0.016", fillcolor="#fffdfc"] ;
959 -> 961 ;
962 [label="mse = 0.0\nsamples = 1\nvalue = 0.019", fillcolor="#fffdfb"] ;
961 -> 962 ;
963 [label="X[21] <= 0.854\nmse = 0.0\nsamples = 2\nvalue = 0.014", fillcolor="#fffdfc"] ;
961 -> 963 ;
964 [label="mse = 0.0\nsamples = 1\nvalue = 0.019", fillcolor="#fffdfb"] ;
963 -> 964 ;
965 [label="mse = 0.0\nsamples = 1\nvalue = 0.009", fillcolor="#fffefd"] ;
963 -> 965 ;
966 [label="X[13] <= 0.465\nmse = 0.0\nsamples = 304\nvalue = 0.032", fillcolor="#fefbf9"] ;
958 -> 966 ;
967 [label="X[16] <= 0.426\nmse = 0.0\nsamples = 280\nvalue = 0.032", fillcolor="#fefbf9"] ;
966 -> 967 ;
968 [label="X[22] <= 0.111\nmse = 0.0\nsamples = 19\nvalue = 0.027", fillcolor="#fefcfa"] ;
967 -> 968 ;
969 [label="mse = 0.0\nsamples = 1\nvalue = 0.009", fillcolor="#fffefd"] ;
968 -> 969 ;
970 [label="X[20] <= 0.594\nmse = 0.0\nsamples = 18\nvalue = 0.028", fillcolor="#fefbf9"] ;
968 -> 970 ;
971 [label="mse = 0.0\nsamples = 2\nvalue = 0.037", fillcolor="#fefaf8"] ;
970 -> 971 ;
972 [label="X[22] <= 0.179\nmse = 0.0\nsamples = 16\nvalue = 0.027", fillcolor="#fefcfa"] ;
970 -> 972 ;
973 [label="mse = 0.0\nsamples = 2\nvalue = 0.037", fillcolor="#fefaf8"] ;
972 -> 973 ;
974 [label="X[16] <= 0.417\nmse = 0.0\nsamples = 14\nvalue = 0.025", fillcolor="#fefcfa"] ;
972 -> 974 ;
975 [label="X[22] <= 0.191\nmse = 0.0\nsamples = 6\nvalue = 0.02", fillcolor="#fefcfb"] ;
974 -> 975 ;
976 [label="mse = 0.0\nsamples = 1\nvalue = 0.028", fillcolor="#fefbf9"] ;
975 -> 976 ;
977 [label="mse = -0.0\nsamples = 5\nvalue = 0.019", fillcolor="#fffdfb"] ;
975 -> 977 ;
978 [label="X[12] <= 0.705\nmse = 0.0\nsamples = 8\nvalue = 0.029", fillcolor="#fefbf9"] ;
974 -> 978 ;
979 [label="mse = 0.0\nsamples = 2\nvalue = 0.037", fillcolor="#fefaf8"] ;
978 -> 979 ;
980 [label="X[14] <= 0.425\nmse = 0.0\nsamples = 6\nvalue = 0.026", fillcolor="#fefcfa"] ;
978 -> 980 ;
981 [label="X[2] <= 0.203\nmse = 0.0\nsamples = 5\nvalue = 0.028", fillcolor="#fefbf9"] ;
980 -> 981 ;
982 [label="mse = 0.0\nsamples = 2\nvalue = 0.028", fillcolor="#fefbf9"] ;
981 -> 982 ;
983 [label="X[13] <= 0.354\nmse = 0.0\nsamples = 3\nvalue = 0.028", fillcolor="#fefbf9"] ;
981 -> 983 ;
984 [label="mse = 0.0\nsamples = 2\nvalue = 0.028", fillcolor="#fefbf9"] ;
983 -> 984 ;
985 [label="mse = 0.0\nsamples = 1\nvalue = 0.028", fillcolor="#fefbf9"] ;
983 -> 985 ;
986 [label="mse = -0.0\nsamples = 1\nvalue = 0.019", fillcolor="#fffdfb"] ;
980 -> 986 ;
987 [label="X[18] <= 0.629\nmse = 0.0\nsamples = 261\nvalue = 0.032", fillcolor="#fefbf9"] ;
967 -> 987 ;
988 [label="X[19] <= 0.172\nmse = 0.0\nsamples = 259\nvalue = 0.032", fillcolor="#fefbf9"] ;
987 -> 988 ;
989 [label="X[24] <= 0.143\nmse = 0.0\nsamples = 86\nvalue = 0.034", fillcolor="#fefbf8"] ;
988 -> 989 ;
990 [label="X[24] <= 0.129\nmse = 0.0\nsamples = 12\nvalue = 0.04", fillcolor="#fefaf7"] ;
989 -> 990 ;
991 [label="X[24] <= 0.108\nmse = 0.0\nsamples = 8\nvalue = 0.036", fillcolor="#fefaf8"] ;
990 -> 991 ;
992 [label="X[11] <= 0.147\nmse = 0.0\nsamples = 2\nvalue = 0.033", fillcolor="#fefbf9"] ;
991 -> 992 ;
993 [label="mse = 0.0\nsamples = 1\nvalue = 0.028", fillcolor="#fefbf9"] ;
992 -> 993 ;
994 [label="mse = 0.0\nsamples = 1\nvalue = 0.037", fillcolor="#fefaf8"] ;
992 -> 994 ;
995 [label="mse = 0.0\nsamples = 6\nvalue = 0.037", fillcolor="#fefaf8"] ;
991 -> 995 ;
996 [label="X[13] <= 0.37\nmse = 0.0\nsamples = 4\nvalue = 0.047", fillcolor="#fef9f6"] ;
990 -> 996 ;
997 [label="X[1] <= 0.419\nmse = 0.0\nsamples = 3\nvalue = 0.044", fillcolor="#fefaf6"] ;
996 -> 997 ;
998 [label="mse = -0.0\nsamples = 2\nvalue = 0.047", fillcolor="#fef9f6"] ;
997 -> 998 ;
999 [label="mse = 0.0\nsamples = 1\nvalue = 0.037", fillcolor="#fefaf8"] ;
997 -> 999 ;
1000 [label="mse = -0.0\nsamples = 1\nvalue = 0.056", fillcolor="#fef8f4"] ;
996 -> 1000 ;
1001 [label="X[22] <= 0.105\nmse = 0.0\nsamples = 74\nvalue = 0.033", fillcolor="#fefbf9"] ;
989 -> 1001 ;
1002 [label="X[21] <= 0.911\nmse = 0.0\nsamples = 54\nvalue = 0.034", fillcolor="#fefbf8"] ;
1001 -> 1002 ;
1003 [label="X[2] <= 0.258\nmse = 0.0\nsamples = 6\nvalue = 0.028", fillcolor="#fefbf9"] ;
1002 -> 1003 ;
1004 [label="mse = 0.0\nsamples = 1\nvalue = 0.019", fillcolor="#fffdfb"] ;
1003 -> 1004 ;
1005 [label="X[3] <= 0.173\nmse = 0.0\nsamples = 5\nvalue = 0.03", fillcolor="#fefbf9"] ;
1003 -> 1005 ;
1006 [label="mse = 0.0\nsamples = 4\nvalue = 0.028", fillcolor="#fefbf9"] ;
1005 -> 1006 ;
1007 [label="mse = -0.0\nsamples = 1\nvalue = 0.037", fillcolor="#fefaf8"] ;
1005 -> 1007 ;
1008 [label="X[22] <= 0.031\nmse = 0.0\nsamples = 48\nvalue = 0.035", fillcolor="#fefbf8"] ;
1002 -> 1008 ;
1009 [label="mse = 0.0\nsamples = 1\nvalue = 0.019", fillcolor="#fffdfb"] ;
1008 -> 1009 ;
1010 [label="X[3] <= 0.035\nmse = 0.0\nsamples = 47\nvalue = 0.035", fillcolor="#fefbf8"] ;
1008 -> 1010 ;
1011 [label="mse = 0.0\nsamples = 1\nvalue = 0.047", fillcolor="#fef9f6"] ;
1010 -> 1011 ;
1012 [label="X[24] <= 0.178\nmse = 0.0\nsamples = 46\nvalue = 0.035", fillcolor="#fefbf8"] ;
1010 -> 1012 ;
1013 [label="X[12] <= 0.816\nmse = 0.0\nsamples = 8\nvalue = 0.032", fillcolor="#fefbf9"] ;
1012 -> 1013 ;
1014 [label="X[14] <= 0.323\nmse = 0.0\nsamples = 6\nvalue = 0.03", fillcolor="#fefbf9"] ;
1013 -> 1014 ;
1015 [label="mse = 0.0\nsamples = 1\nvalue = 0.037", fillcolor="#fefaf8"] ;
1014 -> 1015 ;
1016 [label="mse = -0.0\nsamples = 5\nvalue = 0.028", fillcolor="#fefbf9"] ;
1014 -> 1016 ;
1017 [label="X[20] <= 0.721\nmse = 0.0\nsamples = 2\nvalue = 0.037", fillcolor="#fefaf8"] ;
1013 -> 1017 ;
1018 [label="mse = 0.0\nsamples = 1\nvalue = 0.037", fillcolor="#fefaf8"] ;
1017 -> 1018 ;
